3429 100
like 0.42102328 0.21097252 -0.08077752 0.0078322 -0.27870336 0.03060322 -0.39477447 0.930345 -0.54888827 0.29046887 -0.22072533 -0.5124379 0.38411936 0.81713724 0.59275675 0.31099096 -0.92207617 -0.34479022 -0.08053598 0.15983413 -0.048191242 -0.047016777 0.07225486 0.95740604 0.100790024 0.13202745 0.480896 0.28097504 0.47214383 0.16635984 0.69019854 0.50831115 0.66453177 -0.22731553 -0.5232382 -0.057675447 -1.1799561 0.4997374 -0.60982394 0.33790132 -0.21405488 -0.66685647 -0.31071827 0.49642938 -0.44460943 0.061548147 -0.27799976 0.28571704 0.21729895 0.034065902 -0.5765486 -0.40789425 -0.47532552 -0.15409641 0.003325082 0.5351865 0.19520856 -0.55391175 -0.30020684 0.015682645 0.4470171 0.5211064 -0.38547957 0.26873693 -0.01226041 -0.0943516 0.2836453 -0.23891874 0.60783386 0.21308103 0.16981104 0.56567943 0.14435928 0.22745772 0.6218453 0.26363847 0.017289745 0.49103242 -1.0658693 0.576814 -0.068602785 -0.021919802 0.86087835 -0.26158655 0.5380522 -0.08758853 -0.04819906 0.39651725 0.73884547 0.9062734 -0.10500045 0.110988885 -0.48903885 0.46893102 0.013575699 0.21794884 -0.60492545 -0.7636252 0.4792947 0.7328532
amp 0.4835802 0.24746677 -0.088781975 0.019446734 -0.3253485 0.031816307 -0.446846 1.0688684 -0.6331818 0.33189365 -0.2544622 -0.58189845 0.44869256 0.95422304 0.6813369 0.34780717 -1.070956 -0.40350616 -0.08142288 0.18574631 -0.06079088 -0.06283653 0.09171783 1.0980628 0.10335162 0.15766954 0.5481549 0.30606902 0.5425647 0.2037852 0.7955921 0.57788473 0.75480264 -0.27661255 -0.60031164 -0.07262864 -1.358087 0.5619182 -0.6929073 0.38546985 -0.2407334 -0.7603796 -0.3575971 0.55869466 -0.5187657 0.06332569 -0.3133494 0.33671492 0.2568843 0.039697375 -0.66682 -0.4554931 -0.53918767 -0.18135528 0.0013407996 0.61400056 0.22919312 -0.63690054 -0.33662862 0.02516952 0.5055716 0.6045272 -0.44542348 0.29587716 -0.015737072 -0.10414346 0.3290109 -0.26833552 0.6922505 0.25084466 0.20851487 0.64546394 0.1628953 0.2572111 0.72667336 0.31409803 0.014201485 0.572754 -1.2356726 0.6652442 -0.064342014 -0.022162374 0.99757224 -0.30382958 0.60950196 -0.09414673 -0.051833585 0.4603305 0.85462725 1.0371279 -0.12519065 0.13358931 -0.5552162 0.5359698 0.008221934 0.25939646 -0.6991873 -0.8884887 0.5414901 0.8344506
im 0.39263254 0.19776021 -0.07660455 0.005299747 -0.2644746 0.029053826 -0.35475415 0.8405544 -0.5066843 0.2634395 -0.20549077 -0.4746852 0.35677978 0.74632263 0.53397775 0.27906382 -0.8517111 -0.32414725 -0.066036 0.14814363 -0.04276501 -0.053519405 0.07421243 0.8762676 0.09476756 0.1265657 0.43537927 0.2477171 0.43526998 0.1595411 0.632182 0.4651608 0.59438753 -0.21145906 -0.47350052 -0.06046452 -1.0649914 0.45546153 -0.55172247 0.30923364 -0.19597836 -0.6054469 -0.28414872 0.44979882 -0.4151901 0.059143137 -0.24866286 0.2623537 0.19866039 0.033911448 -0.5275002 -0.3669519 -0.42744678 -0.1431413 -0.007584292 0.4914689 0.18418983 -0.5059023 -0.26668313 0.017960547 0.40709564 0.48214972 -0.35400134 0.24215084 -0.010328963 -0.072757125 0.26345414 -0.21458957 0.553493 0.19095558 0.16470082 0.5131974 0.13442123 0.2129939 0.57848114 0.24628821 0.010124488 0.4521514 -0.9745706 0.53339213 -0.06361392 -0.018702058 0.78055936 -0.23651163 0.49226072 -0.07351317 -0.036288504 0.3587067 0.667477 0.8281299 -0.104732536 0.10493068 -0.44841212 0.4217356 0.01648957 0.20187104 -0.55673265 -0.7070418 0.4444674 0.67437553
fire 0.44616205 0.22606964 -0.09530492 0.022169005 -0.2928082 0.026888644 -0.41831335 0.99119645 -0.58092827 0.31845206 -0.23350339 -0.5448281 0.40074593 0.8898808 0.6161883 0.33149362 -0.99550235 -0.3754574 -0.076710686 0.1780823 -0.06382075 -0.05647901 0.08166549 1.0159317 0.08845615 0.14778756 0.50568783 0.29544312 0.5058049 0.18039699 0.7344375 0.5388637 0.70305705 -0.24687466 -0.5521749 -0.06303637 -1.2438525 0.5110079 -0.6497043 0.35174096 -0.23509014 -0.7161104 -0.33790335 0.5257445 -0.4778881 0.06061467 -0.28211373 0.29959235 0.24269463 0.032922894 -0.62237805 -0.42572755 -0.48929268 -0.16737583 -0.010266174 0.57019234 0.21433806 -0.57764965 -0.31779245 0.017807923 0.46958253 0.5623466 -0.40510395 0.2782862 -0.008570787 -0.09190683 0.30113104 -0.24519488 0.65090126 0.23316488 0.18972896 0.59804124 0.14521113 0.2403456 0.6710324 0.28690207 0.0034593823 0.535488 -1.1397892 0.6137611 -0.077111 -0.024143124 0.93186545 -0.27363458 0.5579022 -0.0972174 -0.043968957 0.42183602 0.7809127 0.9628461 -0.12840852 0.11733064 -0.507223 0.4960288 0.018545762 0.23836203 -0.6497032 -0.814816 0.5079953 0.7757216
get 0.4375573 0.22178367 -0.0861302 0.02565622 -0.29505268 0.029743684 -0.4026882 0.9625187 -0.5738043 0.30399713 -0.23571014 -0.5178105 0.3987344 0.8430094 0.60918397 0.32243943 -0.944664 -0.36496055 -0.08002356 0.16216405 -0.049553484 -0.048382092 0.086368464 0.97082937 0.10511328 0.13617541 0.5012525 0.26832134 0.49403325 0.18172443 0.7056504 0.5168167 0.6807548 -0.2382248 -0.5458569 -0.056510426 -1.2141703 0.5106277 -0.6233597 0.34629273 -0.23318878 -0.69084746 -0.322824 0.5061666 -0.46752968 0.057592124 -0.2852875 0.30433765 0.23520401 0.023778858 -0.5936234 -0.40879464 -0.48901477 -0.15013862 0.002763935 0.55726546 0.20484617 -0.5785109 -0.30363175 0.016086541 0.4579627 0.52949613 -0.40820912 0.26544896 -0.012199819 -0.090541504 0.29330075 -0.23995303 0.6107264 0.2215787 0.19794038 0.57314795 0.15337358 0.2286363 0.64810896 0.28875056 0.017357174 0.5256482 -1.1042587 0.58862245 -0.07076003 -0.023121992 0.87894005 -0.27766308 0.5566279 -0.07120324 -0.0385456 0.4129356 0.76047254 0.93151474 -0.11239513 0.11449451 -0.50496644 0.4805801 0.0222655 0.23889549 -0.63467395 -0.7820449 0.4963383 0.7506512
new 0.4802905 0.23765235 -0.08561057 0.015115529 -0.31663585 0.015702639 -0.44470903 1.0494754 -0.6240372 0.3327078 -0.25593928 -0.57309407 0.42358974 0.95124173 0.66036886 0.34969667 -1.0528895 -0.39774212 -0.083044544 0.18907699 -0.048656408 -0.05645676 0.09021445 1.0776113 0.11169475 0.14600945 0.546217 0.30617127 0.5445374 0.20078899 0.7855542 0.57782906 0.7468961 -0.27290243 -0.5960214 -0.0756455 -1.3464212 0.5555037 -0.6957343 0.37541837 -0.23924923 -0.75146294 -0.35842285 0.54767394 -0.51667124 0.074651815 -0.29739717 0.325724 0.25172356 0.034909647 -0.65576905 -0.45658943 -0.5307627 -0.17885205 0.001622509 0.60592836 0.2310251 -0.6297953 -0.34106094 0.02910469 0.50069535 0.59461474 -0.4375499 0.2885779 -0.02054244 -0.09867697 0.33322498 -0.26707625 0.69044286 0.24353217 0.19911936 0.6403375 0.15717936 0.26786208 0.7139972 0.3192704 0.020431185 0.5727063 -1.2187432 0.6633432 -0.06040331 -0.013981504 0.98839843 -0.29723528 0.5976352 -0.087358736 -0.05741999 0.46072346 0.8493664 1.0151815 -0.1316728 0.12508777 -0.55693007 0.5245906 0.0034280124 0.25052905 -0.6858181 -0.87185585 0.5378808 0.8246336
news 0.4382836 0.22204402 -0.07958578 0.025725141 -0.29088727 0.021078825 -0.39503926 0.9596831 -0.568384 0.30974135 -0.25306508 -0.5312568 0.38863558 0.8731343 0.6057489 0.32051334 -0.9677985 -0.36418226 -0.07788947 0.17688407 -0.04851105 -0.049855337 0.07892539 0.9891341 0.093884535 0.14366631 0.49037072 0.27767205 0.4935916 0.18845455 0.7034107 0.51467884 0.67984796 -0.23334815 -0.54105216 -0.069024436 -1.2417783 0.4868829 -0.62196857 0.3372731 -0.22153102 -0.67620206 -0.33884293 0.5115039 -0.46738565 0.054944385 -0.2625073 0.30425832 0.2279978 0.028555876 -0.6094705 -0.4033554 -0.47839674 -0.15166354 0.0036421942 0.5667857 0.19930227 -0.5655893 -0.31729144 0.033985645 0.45740414 0.53646153 -0.39402267 0.26326987 -0.024406137 -0.08972605 0.29406923 -0.25088787 0.62248904 0.22943497 0.17425318 0.573573 0.14554591 0.23989609 0.6435699 0.2713573 0.021078903 0.5134289 -1.1098922 0.5935636 -0.07125659 -0.024246132 0.89757055 -0.27631453 0.545915 -0.08895616 -0.050812114 0.42033195 0.785498 0.9295119 -0.13031791 0.10706009 -0.50003165 0.47878712 0.011307036 0.22286327 -0.64055794 -0.8005329 0.48952717 0.765837
people 0.41797644 0.21501978 -0.08302106 0.013112349 -0.2726849 0.020459665 -0.3911139 0.9274514 -0.5541184 0.28621015 -0.2306036 -0.5205308 0.39000607 0.82746565 0.59267706 0.3113696 -0.94056815 -0.34843034 -0.07433914 0.17616844 -0.055560455 -0.054046977 0.08291556 0.962659 0.09484955 0.13701244 0.48150375 0.2616722 0.47153947 0.17111634 0.688396 0.50068074 0.66460264 -0.2367575 -0.51644844 -0.07198996 -1.1809412 0.49477324 -0.61898196 0.3261728 -0.21884371 -0.6711827 -0.3138445 0.49152732 -0.45533365 0.06485226 -0.27332547 0.3005353 0.23221701 0.034616247 -0.5866555 -0.40740693 -0.47688073 -0.14690709 0.0027936716 0.5445489 0.20534621 -0.5503941 -0.30071166 0.019234464 0.43582684 0.5316582 -0.39214227 0.2584079 -0.014717927 -0.09291793 0.29087862 -0.22654375 0.6077468 0.22008047 0.17097525 0.56395805 0.14797331 0.23147039 0.63404155 0.2761911 0.018665988 0.5111969 -1.0745264 0.5845871 -0.07027075 -0.020647611 0.8641515 -0.2577732 0.53110003 -0.07710647 -0.039937075 0.40749148 0.74353284 0.9025387 -0.11604045 0.10669592 -0.4816287 0.45933023 0.013516494 0.21601358 -0.61599946 -0.7726709 0.47479397 0.7363093
one 0.40096533 0.2055569 -0.07653965 0.007450347 -0.26643145 0.031040004 -0.3616015 0.8712372 -0.51598597 0.27657193 -0.21362984 -0.48676315 0.36610517 0.7823903 0.55705357 0.2938499 -0.88430804 -0.32657436 -0.06584165 0.15772067 -0.03944161 -0.04204138 0.07329432 0.9040808 0.09111989 0.12219162 0.4478219 0.251565 0.45039374 0.1672615 0.65526587 0.46918017 0.62346995 -0.22462463 -0.4894616 -0.05934143 -1.1180964 0.45827192 -0.5824305 0.32047883 -0.20335336 -0.6297247 -0.2968064 0.466785 -0.4293113 0.060994264 -0.25606704 0.28224137 0.20766519 0.025451867 -0.54748863 -0.37214103 -0.4502687 -0.14519626 0.00025523105 0.51538694 0.19351742 -0.51598835 -0.2819166 0.0282216 0.41115105 0.5047193 -0.36958635 0.24275008 -0.022071665 -0.08029562 0.27146924 -0.21889254 0.5672635 0.20428604 0.1619103 0.5285858 0.13973758 0.21409112 0.59212226 0.25843588 0.017119044 0.47197765 -1.0133842 0.54967713 -0.05914826 -0.020917198 0.8091229 -0.24106412 0.50598603 -0.07225637 -0.04336585 0.38292876 0.70783323 0.8584588 -0.10407357 0.10898742 -0.45842472 0.43797013 0.012859216 0.21312614 -0.5750811 -0.7303713 0.4490242 0.69178087
emergency 0.49200705 0.26109773 -0.10245869 0.018016372 -0.31163707 0.027448485 -0.44373614 1.0814456 -0.64634466 0.3429007 -0.25575766 -0.5829305 0.4527422 0.97577953 0.69200635 0.36223495 -1.0701979 -0.41688725 -0.07909288 0.18449843 -0.042424057 -0.05330684 0.077192485 1.0963271 0.12124201 0.16505173 0.56371254 0.3113035 0.54487824 0.20390938 0.8046555 0.5882566 0.77160054 -0.27814984 -0.6094766 -0.08221344 -1.3640913 0.5608086 -0.6910888 0.38265437 -0.24369372 -0.780729 -0.3592533 0.56197655 -0.5109176 0.062254105 -0.30537266 0.34239522 0.25478444 0.048948366 -0.6705347 -0.4687302 -0.5374042 -0.18972698 0.0023580196 0.61750907 0.2179087 -0.65181166 -0.33535314 0.025081666 0.50359786 0.6023042 -0.45502433 0.30412063 -0.021219397 -0.11243868 0.3383667 -0.2645631 0.6879721 0.25524157 0.21199638 0.6597702 0.16984908 0.25852245 0.7227952 0.30893612 0.0201108 0.575026 -1.2434176 0.6750654 -0.07944311 -0.031873997 1.0171081 -0.30533344 0.6064621 -0.09131248 -0.047821384 0.46308646 0.86862844 1.0470648 -0.11740703 0.14211635 -0.5735987 0.53382653 0.021722702 0.2559085 -0.6974602 -0.89435387 0.5390246 0.8628867
video 0.4731157 0.26797166 -0.080508135 0.008067448 -0.29387465 -0.004471841 -0.44365698 1.0422893 -0.6471418 0.31905398 -0.22593813 -0.53546005 0.43188867 0.9307971 0.67795026 0.34850138 -1.0193999 -0.4054437 -0.06965858 0.15227063 -0.077306375 -0.06808465 0.06760376 1.0741962 0.07217879 0.12100592 0.5134165 0.30736583 0.5452004 0.2090417 0.760275 0.56057614 0.6985572 -0.26850495 -0.5616177 -0.06721256 -1.3228216 0.53629553 -0.67697483 0.37996903 -0.24982402 -0.7439013 -0.37119168 0.5390323 -0.52998173 0.049398728 -0.31069297 0.33723104 0.2353485 0.05467316 -0.62722874 -0.4563961 -0.5164098 -0.17653444 -0.014900552 0.55072826 0.2189374 -0.61900467 -0.3089561 0.04634744 0.49442187 0.6002669 -0.45300338 0.2786776 -0.008237281 -0.12555753 0.33525342 -0.2761975 0.7042118 0.23576424 0.2314334 0.6299066 0.12873825 0.2810728 0.7014943 0.3248229 0.020996014 0.5451674 -1.2170243 0.6493944 -0.032821395 0.0095492555 0.9828387 -0.29130062 0.5814194 -0.065112166 -0.061243124 0.4422079 0.80966777 0.98090297 -0.13943458 0.10446039 -0.557265 0.49645594 -0.007658104 0.2310729 -0.6805276 -0.87464225 0.4979839 0.7875122
disaster 0.4408601 0.18938556 -0.10391737 0.015264806 -0.30486807 0.0326417 -0.37644857 0.9820581 -0.5760052 0.32952774 -0.2646102 -0.5135015 0.4065028 0.89308417 0.6313704 0.30261675 -0.98667675 -0.37006727 -0.07741235 0.13814516 -0.046164803 -0.016125446 0.09331727 1.002274 0.09363198 0.14417407 0.4987529 0.26653814 0.49175373 0.18992455 0.6667714 0.5255422 0.6956916 -0.25105548 -0.57996714 -0.06875662 -1.2704096 0.48515046 -0.68436813 0.32571524 -0.25694785 -0.6783472 -0.33171353 0.5201859 -0.45653495 0.037556924 -0.24775967 0.3305435 0.22243688 0.051576804 -0.61561126 -0.3814679 -0.50398445 -0.15677716 -0.002844306 0.5944512 0.21988952 -0.59139377 -0.3271356 0.029232897 0.44931382 0.56368315 -0.39668378 0.29017267 -0.06452347 -0.09603691 0.30063635 -0.20842375 0.6573271 0.2649765 0.16419096 0.60399103 0.16266577 0.24339788 0.6196721 0.29509956 0.019687193 0.5460479 -1.1679611 0.60129607 -0.09042314 -0.022628358 0.92737573 -0.25864074 0.57413775 -0.12805346 -0.041471034 0.4448188 0.82064784 0.96919537 -0.08772702 0.07330342 -0.52707064 0.45808703 -0.017184632 0.23426765 -0.66313684 -0.78175974 0.5089396 0.77626336
would 0.4064675 0.20142975 -0.07115075 0.01729666 -0.2629508 0.03151556 -0.36921296 0.894427 -0.52412045 0.2768849 -0.21994908 -0.48528862 0.36932266 0.7968154 0.5695539 0.291193 -0.89482486 -0.33758017 -0.075436 0.15524603 -0.05134445 -0.04078228 0.071031705 0.9164328 0.091865584 0.13041915 0.45475772 0.2609531 0.45369124 0.17302856 0.66225296 0.4786433 0.6228247 -0.22302672 -0.50216454 -0.058855202 -1.1397754 0.47213098 -0.58275974 0.31675822 -0.20189741 -0.63471496 -0.30452275 0.4667606 -0.4261225 0.062223554 -0.26012057 0.2797652 0.21296103 0.029270615 -0.5493566 -0.38765612 -0.45596188 -0.14376563 0.0022537776 0.51751727 0.19665286 -0.5321993 -0.2848603 0.021488465 0.42496195 0.5074358 -0.37005746 0.24357972 -0.011526969 -0.09242294 0.27809685 -0.22652973 0.5812858 0.20148525 0.17116293 0.53252757 0.13377048 0.21667917 0.596829 0.2626494 0.020105433 0.47524512 -1.0320289 0.5526433 -0.05699646 -0.01689139 0.828199 -0.24831274 0.5134256 -0.08166968 -0.04242315 0.38598475 0.71586627 0.86619425 -0.10599485 0.10225776 -0.46856317 0.44151586 0.0054632244 0.2116242 -0.5828888 -0.74160796 0.45525175 0.7029517
police 0.48137644 0.25733015 -0.08663336 0.02724848 -0.3129856 0.025807949 -0.43725476 1.0655315 -0.6368955 0.3333597 -0.270574 -0.6005175 0.43419132 0.9564703 0.68874395 0.36307493 -1.092414 -0.41714606 -0.076522864 0.20829986 -0.04633471 -0.05166827 0.10261239 1.1061019 0.121166766 0.15867522 0.55654097 0.29731172 0.5579848 0.19873703 0.7970884 0.5771139 0.7494316 -0.27662623 -0.597149 -0.07483931 -1.379552 0.56059164 -0.69735825 0.37307683 -0.25917166 -0.76500404 -0.3697299 0.5635969 -0.5084692 0.06679971 -0.32102266 0.34234527 0.25722522 0.040680338 -0.675343 -0.45560828 -0.54275745 -0.18016276 0.0017907657 0.62993884 0.24181214 -0.6312187 -0.34391114 0.027099049 0.5068736 0.61054474 -0.45548734 0.2979859 -0.025871756 -0.09610939 0.3311051 -0.26814514 0.69791114 0.25143155 0.19723481 0.6483948 0.15832116 0.26397625 0.7380344 0.31022328 0.01277557 0.5849009 -1.2464404 0.66770834 -0.063292235 -0.01948654 0.9959181 -0.29607904 0.62080747 -0.08672914 -0.061142698 0.46735117 0.8688704 1.0349336 -0.13675497 0.12844732 -0.5565523 0.52757853 0.01982022 0.26089033 -0.70361936 -0.8844098 0.5456158 0.856025
time 0.3816286 0.20176063 -0.07458644 0.010868293 -0.26188436 0.025476586 -0.35429028 0.8439636 -0.49617207 0.27407178 -0.20377435 -0.4679655 0.35443318 0.75587493 0.53623354 0.28009295 -0.8586116 -0.3221839 -0.07048385 0.14752589 -0.04469298 -0.044879876 0.076613255 0.8696505 0.09207922 0.11703051 0.43488353 0.24182484 0.43046275 0.16150692 0.63521755 0.46370858 0.59461343 -0.21835572 -0.47651345 -0.05640791 -1.0734532 0.44899255 -0.5566771 0.30558428 -0.1927749 -0.60641783 -0.28451163 0.4560853 -0.406913 0.046850592 -0.2416193 0.2677526 0.20782204 0.032197487 -0.5283604 -0.3629664 -0.4348883 -0.14026983 -0.0038999168 0.50182784 0.17475487 -0.5079548 -0.2691975 0.024972051 0.39572406 0.48206234 -0.3552151 0.24051955 -0.018353276 -0.08630082 0.2553992 -0.20786351 0.5515853 0.19401298 0.15509082 0.5180625 0.13455215 0.20898771 0.57748723 0.25153497 0.01695275 0.4541794 -0.9766079 0.52686954 -0.057174515 -0.02279812 0.7889113 -0.23971577 0.48741892 -0.074632004 -0.037320077 0.36129704 0.6874639 0.830514 -0.10900415 0.111861825 -0.43969142 0.42570338 0.0058960477 0.20235743 -0.55076516 -0.70386213 0.43421125 0.6664657
still 0.39088795 0.19914429 -0.06496745 0.017454062 -0.25202888 0.024037575 -0.35972202 0.85586095 -0.50292885 0.27145654 -0.21298423 -0.47374517 0.36612737 0.76094216 0.54984325 0.27479705 -0.86416775 -0.32208487 -0.06674516 0.15470873 -0.043082356 -0.039509166 0.065988995 0.883068 0.079376005 0.11340718 0.44403994 0.25393036 0.4375046 0.1606877 0.6400882 0.46770704 0.61348855 -0.22185059 -0.47859082 -0.061609767 -1.0897908 0.46006516 -0.5594238 0.31116182 -0.20106244 -0.61720246 -0.28701878 0.45336884 -0.42226055 0.050975323 -0.24754569 0.26713917 0.2180934 0.036949232 -0.5319708 -0.3665787 -0.43346357 -0.14012548 0.0034775324 0.4946143 0.1861416 -0.5111056 -0.27746284 0.027210236 0.4021112 0.48804778 -0.35523397 0.23175354 -0.01822072 -0.08193858 0.2633528 -0.21826704 0.5544016 0.20440441 0.14755073 0.5254772 0.13691135 0.20934756 0.5730414 0.24340914 0.01727796 0.4656127 -0.99419236 0.5316798 -0.061985586 -0.016381089 0.7923601 -0.23422086 0.49396205 -0.07170669 -0.043828797 0.36461744 0.6830393 0.8410583 -0.092798375 0.111490324 -0.44195193 0.43664104 0.013426599 0.19888917 -0.56126994 -0.7092167 0.44346115 0.6742408
suicide 0.40652263 0.18327886 -0.072947145 -0.002334577 -0.17402917 0.048799653 -0.30339736 0.9239369 -0.4991369 0.30743644 -0.23010057 -0.5308009 0.40022644 0.84787005 0.62432396 0.27123314 -1.0382679 -0.35308787 -0.057806455 0.20067658 -0.005635837 0.013552143 0.07102787 0.9174367 0.13529666 0.13053994 0.48358518 0.21733552 0.48916838 0.22177167 0.67607576 0.5141648 0.65696335 -0.28078276 -0.5053133 -0.1046489 -1.2525982 0.46661073 -0.6238927 0.27888754 -0.21676235 -0.6531215 -0.33726242 0.51574177 -0.36432973 0.07338914 -0.29507363 0.3265439 0.24860893 -0.0059997127 -0.6031617 -0.4166367 -0.5011049 -0.054736927 0.019645497 0.6406776 0.18053159 -0.4934571 -0.2841444 0.080136195 0.3931367 0.5941333 -0.4058193 0.27196953 -0.059798487 -0.110754035 0.3010657 -0.19613318 0.5837207 0.19510596 0.16299334 0.51013994 0.17211074 0.209418 0.6368793 0.23903476 -0.046084844 0.59280896 -1.0941756 0.5539389 -0.018288681 -0.049672764 0.88117605 -0.24273665 0.53225607 -0.088065945 -0.05720774 0.39278913 0.8189732 0.9338309 -0.12144154 0.07958846 -0.44801039 0.49191105 0.05989738 0.23975694 -0.6870629 -0.7846285 0.4208683 0.7646903
body 0.4944325 0.2592873 -0.083778664 0.026710708 -0.3026472 0.022011232 -0.43148625 1.0673567 -0.61882275 0.333516 -0.27491972 -0.6066869 0.41252154 0.96296924 0.6649819 0.34278116 -1.0534786 -0.40858018 -0.050321095 0.17246087 -0.033515416 -0.07197328 0.08659019 1.0729834 0.14360441 0.15537849 0.53875667 0.29634267 0.51697546 0.22243196 0.7684952 0.5722045 0.7439135 -0.23080038 -0.5929515 -0.071729735 -1.3311026 0.5601857 -0.6651331 0.3746742 -0.21217519 -0.7412564 -0.3579317 0.55862105 -0.5129833 0.042680733 -0.31117025 0.35388938 0.23557004 0.018931735 -0.6593256 -0.4474785 -0.5267356 -0.18218504 -0.01608316 0.62099415 0.21651326 -0.60890526 -0.3440671 0.029899495 0.48217896 0.5824415 -0.44573689 0.2994789 -0.009778479 -0.10466021 0.33272135 -0.2742723 0.6790268 0.24877302 0.22342357 0.6289862 0.15189806 0.25011802 0.686841 0.31931144 0.032001298 0.5735005 -1.2256212 0.6472724 -0.048023462 -0.006385987 1.000596 -0.31261685 0.60984766 -0.090429954 -0.047305007 0.4573593 0.8638982 1.0230154 -0.1366568 0.119513616 -0.58874506 0.5363082 0.021544503 0.26517406 -0.66855896 -0.85865855 0.52890146 0.85584164
first 0.41402173 0.218264 -0.076269336 0.022021582 -0.26295495 0.028930647 -0.37640107 0.9148773 -0.54280835 0.29227084 -0.21831568 -0.501495 0.37288934 0.8139865 0.5890236 0.30776295 -0.9193966 -0.33808115 -0.078103445 0.16639574 -0.041671064 -0.04021202 0.07596946 0.9206988 0.09996476 0.13810575 0.46265984 0.26036173 0.47075263 0.1701037 0.67974776 0.4966499 0.64002424 -0.23879564 -0.51383054 -0.06491039 -1.1631272 0.48875815 -0.6007214 0.32562494 -0.21103588 -0.651619 -0.30919293 0.4757389 -0.43809468 0.06390762 -0.2686849 0.2919157 0.21943173 0.023632098 -0.57330894 -0.38856295 -0.4668862 -0.15619895 -0.004750981 0.5357329 0.2015024 -0.5409111 -0.28758 0.026746543 0.43315598 0.51790965 -0.3861787 0.24920782 -0.02309913 -0.09742282 0.28887567 -0.22571845 0.5950479 0.21068172 0.16328564 0.55813414 0.13888209 0.22453316 0.6121648 0.26688367 0.019476067 0.48588622 -1.0578729 0.56785595 -0.051525507 -0.017114485 0.8503626 -0.24778292 0.5172114 -0.07369812 -0.046685778 0.38913274 0.7322609 0.88200593 -0.112214245 0.10194841 -0.4680532 0.44738895 0.008386638 0.2202284 -0.6032345 -0.7443446 0.46220773 0.7161265
burning 0.38036984 0.20154332 -0.07108642 0.0074030785 -0.23271608 0.01974206 -0.35548136 0.8023082 -0.47956562 0.26498824 -0.19409442 -0.46382532 0.34382564 0.70016116 0.50349885 0.28187805 -0.8230167 -0.28970933 -0.06976649 0.16004029 -0.061334424 -0.048435804 0.06842147 0.83502746 0.062117945 0.11429823 0.41207966 0.25420067 0.43087736 0.14156644 0.59271085 0.42664757 0.5786014 -0.19009598 -0.43917674 -0.065294646 -1.0117133 0.42254388 -0.5420696 0.27241445 -0.19997627 -0.60001326 -0.26868403 0.4260286 -0.4014761 0.059155446 -0.25312853 0.23405607 0.20888825 0.010702006 -0.49571514 -0.3614564 -0.40786165 -0.14725907 -0.0051186937 0.48214063 0.16308567 -0.48814395 -0.257412 0.018407093 0.37852105 0.44919768 -0.3518825 0.24253064 -0.00039806764 -0.061585862 0.23395415 -0.21062721 0.5346162 0.19640498 0.14540227 0.5055841 0.11075795 0.19442354 0.5598735 0.24113339 -0.006993432 0.44880062 -0.9481515 0.4942858 -0.07978486 -0.022350118 0.75865614 -0.20961297 0.45490158 -0.0784436 -0.05146907 0.35702696 0.65359294 0.8031719 -0.12366715 0.10446265 -0.40010896 0.41788775 0.028540501 0.19926299 -0.54329145 -0.6641764 0.43272877 0.6342027
crash 0.40044603 0.1963325 -0.075125895 0.0137062585 -0.26837048 0.017630639 -0.37489623 0.8980838 -0.5530002 0.29909074 -0.23761964 -0.48885208 0.37691933 0.8239372 0.57690185 0.2902096 -0.92223895 -0.34118167 -0.08279663 0.14814794 -0.04813439 -0.04973124 0.076165006 0.9220796 0.093462326 0.12669776 0.467611 0.26971793 0.47861192 0.16181032 0.67689955 0.4903964 0.625956 -0.22892007 -0.51881737 -0.078676075 -1.1696544 0.47807604 -0.58178955 0.3159821 -0.21072948 -0.6462221 -0.32588372 0.47467452 -0.4353005 0.059989493 -0.23951398 0.2759049 0.2098922 0.05139201 -0.5692915 -0.3687975 -0.45368567 -0.14845867 0.006095499 0.51081854 0.18665971 -0.5174912 -0.2856068 0.014744581 0.42593917 0.51156545 -0.37645376 0.23026386 -0.016817188 -0.079653226 0.28123042 -0.22363661 0.59452784 0.19364119 0.18398526 0.5521832 0.13135724 0.23008792 0.6105441 0.2546217 0.013290221 0.4855169 -1.044379 0.57120734 -0.059620004 -0.035143778 0.84691024 -0.25721818 0.5294674 -0.08525507 -0.045419354 0.4024258 0.73589176 0.86852914 -0.115154445 0.1054343 -0.481613 0.46928254 0.018201226 0.2150655 -0.59185547 -0.7363924 0.4562671 0.7088045
storm 0.42710447 0.2066617 -0.070129946 0.019029321 -0.28432173 0.014277691 -0.39028272 0.9363584 -0.54926586 0.2980595 -0.23414713 -0.51262665 0.3951053 0.84534293 0.597875 0.30853614 -0.9383736 -0.34966457 -0.07794039 0.16460706 -0.039138544 -0.058074 0.06973597 0.9634265 0.1000836 0.13582496 0.474077 0.27461126 0.48492268 0.17069265 0.6966763 0.50060534 0.6609772 -0.23158425 -0.5317504 -0.05339627 -1.1919308 0.49880224 -0.6117008 0.3346412 -0.21844444 -0.6809691 -0.31780577 0.500212 -0.45898435 0.059149176 -0.2675731 0.30308834 0.23005864 0.024278615 -0.5793125 -0.39602074 -0.4699412 -0.16328117 0.005550792 0.5499144 0.21109486 -0.56335247 -0.2989232 0.029732473 0.43578893 0.5308874 -0.3853192 0.2686123 -0.008459739 -0.08917079 0.29199955 -0.23093209 0.61521125 0.21963045 0.18420808 0.56466323 0.14966927 0.22499003 0.63888925 0.2782919 0.021274755 0.4983371 -1.085592 0.5871334 -0.063889 -0.02090686 0.8672127 -0.27244076 0.54285216 -0.08812507 -0.033917602 0.3998872 0.75183964 0.9139159 -0.117458574 0.112151206 -0.5023648 0.46464723 0.011281622 0.22379792 -0.6221675 -0.7859973 0.47894517 0.7488529
rt 0.39575228 0.19685806 -0.07651188 0.009232519 -0.26491374 0.014344122 -0.35675567 0.85592914 -0.5165902 0.2722019 -0.21251117 -0.46786785 0.3603497 0.77468175 0.5489067 0.2867435 -0.86574394 -0.3280884 -0.063045144 0.15239426 -0.044959698 -0.04254594 0.07584153 0.8765349 0.087574385 0.11821101 0.43595272 0.25340706 0.4436208 0.16088937 0.6322084 0.4641334 0.6007285 -0.21358585 -0.48302367 -0.06284879 -1.1022282 0.45488852 -0.5631331 0.30393365 -0.20197098 -0.6104657 -0.29312962 0.44947696 -0.42373386 0.054353815 -0.24826469 0.27561805 0.20642877 0.029570283 -0.53299135 -0.3703667 -0.438608 -0.13841693 0.00043733613 0.5014167 0.18199511 -0.5126946 -0.2748326 0.018221779 0.4115201 0.4909334 -0.35585672 0.23655845 -0.014035751 -0.08892814 0.26556736 -0.20997173 0.55740243 0.19763991 0.1677439 0.52665675 0.13378102 0.21227151 0.5792173 0.25494277 0.018237814 0.46272975 -0.99877745 0.5403794 -0.05308365 -0.012500674 0.8066349 -0.24269874 0.49725163 -0.07470553 -0.046081755 0.37230512 0.68939257 0.8279407 -0.10865152 0.102127306 -0.4540438 0.4306713 0.0040804953 0.21003512 -0.5660342 -0.71741617 0.43440166 0.6776851
attack 0.4127328 0.21192312 -0.07854803 0.018903723 -0.25783905 0.03243457 -0.37460268 0.8961099 -0.536599 0.2874923 -0.22964472 -0.49852404 0.3628239 0.82090855 0.58224034 0.29903415 -0.9219816 -0.35117704 -0.069187224 0.17278117 -0.042113915 -0.03642463 0.07839988 0.9225592 0.095815286 0.1389572 0.4724103 0.2483931 0.46650505 0.1668999 0.67437214 0.49549103 0.6313104 -0.23736194 -0.49846455 -0.05952865 -1.1667094 0.47055915 -0.5856799 0.31553122 -0.21738559 -0.64459914 -0.32144815 0.4822185 -0.42733544 0.0638643 -0.26395738 0.29453382 0.22300288 0.02839608 -0.5641196 -0.38202706 -0.46349093 -0.15110414 -0.0038491932 0.5384339 0.20098801 -0.53548676 -0.29240036 0.029626165 0.42658234 0.51370907 -0.38152155 0.24393947 -0.015609245 -0.09211237 0.28786153 -0.21781205 0.5924044 0.20865121 0.16678338 0.5433032 0.14256735 0.21268958 0.6137668 0.2564726 0.011735198 0.49515706 -1.0539743 0.57101786 -0.05425464 -0.02206687 0.8483929 -0.25482386 0.5182598 -0.07188447 -0.05345395 0.39444116 0.73875856 0.882045 -0.10700392 0.104994036 -0.4604929 0.44648984 0.016080935 0.22016315 -0.6004178 -0.74747485 0.45865387 0.7175485
got 0.33957776 0.17122449 -0.06624007 0.0065593673 -0.22880651 0.0167963 -0.3211251 0.7548023 -0.44941038 0.2366839 -0.17589834 -0.41918924 0.31666008 0.6691362 0.47688898 0.25225964 -0.76250786 -0.29254442 -0.0641753 0.13335954 -0.038831603 -0.046202388 0.06283238 0.7748426 0.0848286 0.11338708 0.39116016 0.2239031 0.38579425 0.13806638 0.55653757 0.40903425 0.52901834 -0.1909004 -0.4264928 -0.049872257 -0.9616672 0.39811513 -0.49851865 0.2697145 -0.17561021 -0.5360543 -0.2594998 0.3995224 -0.3636682 0.055113368 -0.22720236 0.23740858 0.18557613 0.028923348 -0.46642548 -0.32251588 -0.3856988 -0.12301743 -0.0044423435 0.44129157 0.15948817 -0.44939148 -0.24173422 0.021128321 0.35421365 0.42996734 -0.3175698 0.21252616 -0.012748083 -0.078268096 0.2346567 -0.19423011 0.48505434 0.176925 0.14813022 0.45477 0.115995795 0.19245657 0.51287794 0.22247116 0.019212376 0.40204072 -0.8700788 0.47710577 -0.047702603 -0.018622069 0.7049194 -0.21615015 0.43166298 -0.06300596 -0.03177169 0.32581198 0.6017074 0.7387186 -0.09074402 0.09668179 -0.39867926 0.38053295 0.008333487 0.18552181 -0.49143717 -0.6219693 0.3866637 0.5976774
back 0.38196748 0.19312379 -0.06784155 0.005853903 -0.25309408 0.022878608 -0.35139784 0.8418508 -0.49204862 0.26667964 -0.19977531 -0.46629605 0.3427852 0.7461306 0.53367317 0.27739227 -0.8418558 -0.3181753 -0.06426631 0.15294158 -0.04710812 -0.04291829 0.074936815 0.859192 0.09139641 0.115983136 0.43535906 0.24505542 0.42572105 0.15972261 0.62040555 0.45892298 0.58655834 -0.20898424 -0.47304285 -0.05615451 -1.069573 0.44602093 -0.5457445 0.3016117 -0.19367465 -0.59659886 -0.29030547 0.44471025 -0.40682623 0.04915015 -0.24783868 0.27012432 0.19767086 0.02050357 -0.52554077 -0.3610088 -0.42141896 -0.1354505 -0.001171013 0.48695612 0.17497005 -0.49882936 -0.27139056 0.026919281 0.39850715 0.4697941 -0.35419497 0.23805569 -0.018805228 -0.08391252 0.2590637 -0.20804806 0.54209036 0.19247706 0.1594531 0.50548446 0.13533297 0.20908882 0.5684344 0.2502275 0.015948758 0.44477797 -0.9677024 0.5252126 -0.049211986 -0.022602031 0.77606994 -0.23223566 0.4849087 -0.07266581 -0.043041665 0.35582674 0.67452955 0.8173386 -0.10434631 0.10056658 -0.44116738 0.42265037 0.006062961 0.1984929 -0.5522382 -0.6910993 0.42974254 0.66596615
california 0.38431704 0.16374917 -0.082498275 0.03409449 -0.252889 0.022441216 -0.31637177 0.81666535 -0.45750436 0.25315592 -0.21657522 -0.41943955 0.31033736 0.7286059 0.48595038 0.25002477 -0.82677317 -0.29234728 -0.09031624 0.15417714 -0.04940465 -0.051763717 0.0906216 0.81441015 0.07091471 0.13234788 0.41146505 0.23165202 0.41767317 0.15938418 0.5806241 0.41186503 0.57877886 -0.16808552 -0.45173562 -0.04208372 -1.0468014 0.37472433 -0.506438 0.28761476 -0.19394775 -0.5510436 -0.27874035 0.43755654 -0.38785112 0.026109915 -0.19573888 0.24345052 0.17739905 0.015653772 -0.52749854 -0.32032996 -0.39943486 -0.12295148 0.008490022 0.49821118 0.18131213 -0.45597932 -0.27446088 0.029388513 0.37583873 0.4605476 -0.33741763 0.23037525 -0.03495123 -0.066584274 0.22420357 -0.20579644 0.54371595 0.2234915 0.11850427 0.49810794 0.10857338 0.22292031 0.5572595 0.21393907 0.00096348923 0.43555823 -0.91131204 0.4643327 -0.050051298 -0.02742469 0.77777517 -0.24641019 0.4368031 -0.105058275 -0.03155132 0.36705893 0.65155214 0.7785461 -0.13247156 0.080125675 -0.43387717 0.381144 0.0031086204 0.20713094 -0.5409451 -0.6508393 0.42352897 0.6332769
know 0.3430649 0.17621231 -0.05954016 0.008426822 -0.22262433 0.026818663 -0.30765936 0.7490243 -0.4461653 0.23376262 -0.18492022 -0.4138619 0.30882257 0.6635669 0.47780842 0.2496729 -0.7443773 -0.28310674 -0.06276653 0.13435149 -0.038896196 -0.035988867 0.06357856 0.7578965 0.07417675 0.10840756 0.38037083 0.21152021 0.37664908 0.13912873 0.5575275 0.409034 0.5216883 -0.18314804 -0.41698435 -0.053345755 -0.951638 0.39418626 -0.48853436 0.26773778 -0.16889055 -0.5325782 -0.24960156 0.39514962 -0.36527118 0.045128703 -0.21965341 0.23668185 0.18146226 0.023428787 -0.46712917 -0.31662917 -0.38143528 -0.122255 0.0006658896 0.43219832 0.16451778 -0.44619256 -0.23345613 0.019661307 0.35625592 0.4262408 -0.3146768 0.20721744 -0.012434429 -0.07317682 0.2264194 -0.18912005 0.47863194 0.17201102 0.14603658 0.45354843 0.120165005 0.18539976 0.5095143 0.21998508 0.0180785 0.40258476 -0.85700274 0.4625373 -0.04972235 -0.020417375 0.6977536 -0.20488866 0.42739782 -0.06785164 -0.034458917 0.32340413 0.60168135 0.72412515 -0.09349426 0.09111 -0.38941455 0.37667525 0.014491012 0.18366702 -0.48173374 -0.61773926 0.3834858 0.59312576
fires 0.38016263 0.20032845 -0.07016733 0.015142835 -0.24902338 0.010643093 -0.35421902 0.8619894 -0.50234497 0.2756361 -0.21157496 -0.46246326 0.33790535 0.7779051 0.53665394 0.2862218 -0.8648544 -0.3172023 -0.062487565 0.16272011 -0.043768737 -0.05706563 0.0797802 0.86616564 0.08538988 0.13504156 0.44154814 0.2446583 0.42886618 0.14920315 0.63612014 0.46847722 0.6113999 -0.20562093 -0.4806832 -0.053678993 -1.0979642 0.45159113 -0.56690717 0.31634566 -0.20313148 -0.614719 -0.28942963 0.44739068 -0.41322762 0.041219 -0.22939573 0.26345068 0.2172361 0.018750595 -0.5511885 -0.37814388 -0.43533283 -0.12988085 -0.0044473372 0.5093512 0.18337163 -0.4963439 -0.2873373 0.009025486 0.42383856 0.48461723 -0.34159002 0.24750014 -0.01628882 -0.08293163 0.25098237 -0.22224577 0.5676099 0.21054533 0.15532924 0.5189654 0.1182306 0.2217897 0.59493536 0.25010502 0.0017737647 0.4504875 -0.9811025 0.5332558 -0.043309417 -0.0194529 0.8206403 -0.23085769 0.4715272 -0.075170435 -0.04180827 0.37123948 0.68627876 0.83595884 -0.10402248 0.11591197 -0.45569623 0.41098273 0.0004535832 0.20517133 -0.56830394 -0.70617336 0.43050843 0.6756983
day 0.3562823 0.18595321 -0.06665671 0.009986086 -0.22696915 0.02460978 -0.31785786 0.7718168 -0.45981306 0.25147957 -0.19070715 -0.4259318 0.32084447 0.6977414 0.5007639 0.25186047 -0.7861598 -0.29544067 -0.06524932 0.1334577 -0.04131448 -0.04076887 0.06353326 0.80276966 0.08085702 0.10706365 0.40204042 0.22983682 0.3965568 0.14740019 0.57898754 0.42604843 0.5523689 -0.19618717 -0.4396214 -0.052103937 -0.9829826 0.41590318 -0.51324993 0.2842245 -0.18101177 -0.5618967 -0.26388478 0.41256693 -0.381186 0.054255318 -0.23063253 0.2488454 0.18281104 0.028496597 -0.4860436 -0.33202374 -0.3905896 -0.12836273 -1.6553575e-05 0.45361876 0.16813749 -0.46113658 -0.251238 0.02664605 0.3727319 0.44214594 -0.319604 0.22197111 -0.014576616 -0.07074365 0.23654191 -0.19298905 0.50341576 0.17514524 0.14825769 0.47419572 0.12062419 0.18926848 0.5224944 0.22327887 0.019973299 0.41907158 -0.89589316 0.48913127 -0.048111413 -0.015472264 0.729012 -0.21262795 0.4483544 -0.07202285 -0.038429167 0.33391392 0.6226583 0.76161575 -0.09140216 0.09099316 -0.40701994 0.38940212 0.0112243965 0.18141027 -0.5044053 -0.6437923 0.39435717 0.61466765
going 0.3352295 0.17138396 -0.068628296 0.009461317 -0.22284691 0.026664235 -0.3121837 0.74262846 -0.4430494 0.23659094 -0.17555366 -0.40386963 0.3107838 0.6552326 0.47409132 0.23963249 -0.73699445 -0.28412038 -0.0589376 0.12799948 -0.03353541 -0.042799026 0.05919358 0.765 0.08203814 0.105064675 0.38215622 0.21471289 0.38412383 0.14188483 0.5452401 0.40570417 0.5272711 -0.1840405 -0.42148846 -0.04668597 -0.9403925 0.3882587 -0.48821303 0.26529872 -0.1761276 -0.53504056 -0.25128037 0.39126062 -0.36028966 0.052809265 -0.22096571 0.23853472 0.17858116 0.029209254 -0.46180782 -0.31940848 -0.37869704 -0.12409442 -0.0047822646 0.42441136 0.15977004 -0.4332872 -0.23384614 0.01741672 0.34689552 0.4178389 -0.3063059 0.20995381 -0.01589453 -0.07019278 0.22532791 -0.18785405 0.48363644 0.16917278 0.13645068 0.44261205 0.10906245 0.18045433 0.4980652 0.21493867 0.015381826 0.39774334 -0.8611461 0.46368566 -0.0453433 -0.015841449 0.68686885 -0.2091456 0.4285942 -0.05774094 -0.0321958 0.3186724 0.58953285 0.7140682 -0.08743868 0.09470104 -0.38849032 0.3763517 0.005841439 0.17971925 -0.4826768 -0.6168297 0.38249883 0.58860743
cant 0.3482884 0.1783454 -0.0710559 0.015761135 -0.23882236 0.025716774 -0.32075113 0.76608956 -0.45711148 0.24454357 -0.18086219 -0.41942468 0.3236524 0.69005054 0.4919921 0.25224164 -0.77488315 -0.2943858 -0.0624332 0.13685606 -0.040080193 -0.04266109 0.060913596 0.7828201 0.08671559 0.11230545 0.39899072 0.22068022 0.38845432 0.14283045 0.57380974 0.42219338 0.5412527 -0.19837625 -0.42833966 -0.049514186 -0.97712946 0.40948495 -0.5046882 0.27843696 -0.17414284 -0.55104065 -0.26530188 0.40522534 -0.3729798 0.04682608 -0.22168538 0.24361381 0.18590638 0.024387587 -0.48126313 -0.33498588 -0.3969758 -0.13299398 -0.00339662 0.44759572 0.16760872 -0.4534042 -0.24947116 0.016067097 0.36724138 0.4396767 -0.3211016 0.21686015 -0.008760797 -0.07540495 0.23923434 -0.19492371 0.4960009 0.17713355 0.1420695 0.46620807 0.116716735 0.18956473 0.5206854 0.2246745 0.013048771 0.4177591 -0.8928462 0.47795904 -0.053131837 -0.012337944 0.7154604 -0.21955964 0.43880758 -0.06224259 -0.038629904 0.33411533 0.6171905 0.7445831 -0.09522976 0.094649166 -0.40504745 0.38936713 0.008461816 0.18479471 -0.5068366 -0.6385825 0.39161143 0.611472
buildings 0.33028138 0.16565596 -0.08858999 0.0025437097 -0.20568319 0.023445548 -0.3171683 0.70642906 -0.4219867 0.2226947 -0.15920205 -0.41586688 0.30024964 0.6584221 0.46880504 0.25789243 -0.7214181 -0.2602685 -0.07104054 0.12851308 -0.03611879 -0.034542527 0.04778157 0.75570667 0.051883984 0.123129845 0.35980392 0.20402603 0.3658043 0.13705365 0.55012655 0.3995271 0.52541244 -0.18402041 -0.39042473 -0.05249997 -0.89526314 0.36171266 -0.47427252 0.26949725 -0.18401779 -0.514569 -0.22684053 0.37690964 -0.3493513 0.056816563 -0.234856 0.22845024 0.1727824 0.037141822 -0.45874232 -0.3242368 -0.36958772 -0.12819803 0.01399961 0.406827 0.1571553 -0.4322624 -0.21741757 0.0154800955 0.34883428 0.42785344 -0.31481275 0.19310217 -0.010725812 -0.06978184 0.21921562 -0.18149897 0.4846704 0.17804857 0.11497558 0.45555913 0.11635537 0.18247478 0.49404174 0.20302653 0.016970122 0.38440225 -0.8313023 0.45840713 -0.07454088 -0.0103596505 0.6854445 -0.18028761 0.4029581 -0.07859236 -0.048893366 0.3140095 0.5613489 0.68517536 -0.10306068 0.08400853 -0.36949554 0.35372683 0.020474564 0.17451839 -0.4719259 -0.590095 0.37333363 0.5673735
see 0.3276057 0.1678488 -0.060739297 0.0051341695 -0.21030676 0.021430947 -0.29803598 0.7176817 -0.42154396 0.22363609 -0.1669116 -0.3968831 0.29291832 0.63595754 0.45944262 0.23572552 -0.7160691 -0.2698925 -0.05834791 0.12887551 -0.03548955 -0.03232929 0.06413408 0.7357263 0.07587167 0.10445252 0.36722416 0.20206483 0.36441067 0.1379024 0.5296185 0.38996112 0.50405943 -0.18653779 -0.4018432 -0.04645543 -0.9043907 0.37921855 -0.47060466 0.25358117 -0.16507684 -0.5124075 -0.24707869 0.38044325 -0.34367996 0.049550377 -0.20842613 0.22826996 0.17683525 0.025985526 -0.44875148 -0.31117257 -0.36420622 -0.11894901 -0.005088995 0.42086938 0.15106574 -0.41917765 -0.23076864 0.018682808 0.3431705 0.41019174 -0.2950517 0.20334554 -0.011082164 -0.06841746 0.21681747 -0.17412281 0.46608654 0.16146068 0.13622493 0.4321854 0.11577709 0.17999038 0.4826111 0.20481044 0.009645962 0.38547283 -0.82610863 0.44696957 -0.048712835 -0.012691265 0.6598565 -0.19928923 0.41256148 -0.06592992 -0.028172163 0.302539 0.575006 0.6966852 -0.08678299 0.09031278 -0.3764067 0.35517895 0.010180911 0.17377463 -0.47330678 -0.5934956 0.3681742 0.5660392
man 0.3181786 0.16612047 -0.0636719 0.009885504 -0.21113914 0.02177586 -0.29571727 0.7029813 -0.42817855 0.22044109 -0.17750332 -0.3945506 0.29592794 0.6317618 0.44996497 0.23628873 -0.7065018 -0.2717293 -0.049082693 0.12656657 -0.030202134 -0.04216704 0.05866102 0.7223523 0.078334406 0.107556365 0.37106264 0.20760259 0.36256438 0.13262863 0.5280551 0.3855519 0.49798906 -0.18551128 -0.40151522 -0.053704627 -0.90044105 0.37531266 -0.46393096 0.2526535 -0.16608422 -0.510311 -0.2467046 0.3760198 -0.34774327 0.044665713 -0.21060699 0.22494788 0.16898492 0.023895552 -0.43868482 -0.30020812 -0.35504377 -0.11579671 -0.0040304856 0.40599826 0.15320228 -0.42283797 -0.22951625 0.014648952 0.33428663 0.40439564 -0.2983183 0.19457197 -0.007161224 -0.07101035 0.22339387 -0.17543359 0.45759282 0.1651181 0.13386868 0.43439338 0.1113502 0.17136927 0.48406667 0.20213014 0.014409699 0.38478273 -0.8181598 0.44413424 -0.045415103 -0.017870419 0.6555678 -0.1960188 0.40798247 -0.064106695 -0.03140555 0.30437627 0.5758423 0.6818722 -0.08381126 0.079919994 -0.36400595 0.3585018 0.006141288 0.17008485 -0.4627329 -0.5882509 0.35747656 0.5644016
love 0.3188691 0.16510072 -0.05399387 0.00845065 -0.2203462 0.016209697 -0.30174345 0.71825165 -0.42660815 0.21984018 -0.1791134 -0.39015013 0.29294586 0.64024925 0.45821792 0.23287027 -0.713714 -0.27144727 -0.053184725 0.12022411 -0.038027484 -0.036262468 0.063866496 0.7308673 0.07339996 0.0981853 0.37195903 0.20825613 0.36101025 0.13215302 0.5291111 0.38031706 0.5013044 -0.18479371 -0.3981425 -0.051207546 -0.9100123 0.37474343 -0.4619362 0.25674382 -0.16479968 -0.51611316 -0.24920256 0.3784459 -0.34096894 0.0498138 -0.20750013 0.22978272 0.17380595 0.026796648 -0.44145223 -0.30059427 -0.36299798 -0.12187813 0.0063054496 0.4139569 0.14795057 -0.4253065 -0.22888206 0.019752782 0.3315841 0.41019723 -0.3016929 0.2023145 -0.0065053836 -0.07052247 0.21795839 -0.17738546 0.46802542 0.16284503 0.13914323 0.43377984 0.110618025 0.17062362 0.47782144 0.20982428 0.0135924015 0.38412574 -0.8260718 0.45049176 -0.04481492 -0.016109671 0.66984516 -0.19970883 0.40629962 -0.063472785 -0.0321576 0.3076558 0.57579505 0.68963706 -0.0847729 0.08141285 -0.37214303 0.35585997 0.006987576 0.17079096 -0.45878714 -0.59115833 0.36614895 0.5628091
two 0.400099 0.19815323 -0.076491624 0.00989865 -0.26016086 0.01524028 -0.37159145 0.8736727 -0.52900916 0.28381273 -0.21773809 -0.49086717 0.35850054 0.78154373 0.5547999 0.28871417 -0.8835334 -0.3318706 -0.067759275 0.16698031 -0.05060003 -0.047395684 0.068113476 0.9086576 0.08290293 0.13192824 0.4557322 0.26119477 0.4554136 0.16308959 0.6504182 0.47358912 0.6177669 -0.21817173 -0.48326412 -0.061836667 -1.12032 0.45497626 -0.58313566 0.31360692 -0.21045652 -0.6303468 -0.29913774 0.46495876 -0.43144602 0.06548672 -0.24858332 0.2752701 0.21421084 0.025232557 -0.54630345 -0.38133544 -0.44174975 -0.1414238 0.0014667119 0.5148081 0.19543563 -0.5135569 -0.28252465 0.02474743 0.41505957 0.4980085 -0.37337267 0.24231392 -0.01572302 -0.08485902 0.27473047 -0.22113834 0.5737077 0.19761631 0.17359565 0.5363593 0.13080463 0.22003861 0.59962296 0.25765246 0.014687613 0.47171074 -1.0130827 0.5401601 -0.06492973 -0.017387403 0.80818707 -0.24134648 0.5083429 -0.07247516 -0.049343966 0.37788126 0.7073626 0.849063 -0.10987729 0.11225824 -0.45572194 0.4420109 0.010109111 0.2128891 -0.5712608 -0.730791 0.44474208 0.6969265
pm 0.397181 0.1882104 -0.096604906 -0.013276323 -0.27296522 0.011271041 -0.37577263 0.8806349 -0.54364055 0.2994151 -0.20992383 -0.49168822 0.38105437 0.83142537 0.5717872 0.31555128 -0.9027056 -0.3344939 -0.06872674 0.14549862 -0.040186744 -0.04577863 0.057868574 0.92295617 0.12435236 0.1303435 0.47404635 0.27191126 0.45358092 0.18184479 0.6621904 0.49647337 0.6255394 -0.22819075 -0.525306 -0.073481984 -1.1711375 0.47365686 -0.59457034 0.30030107 -0.2075645 -0.6578733 -0.33704245 0.46180934 -0.43589836 0.06345946 -0.25337246 0.25178832 0.21923207 0.0323906 -0.5734066 -0.40069723 -0.4562997 -0.13129157 0.023444057 0.50819105 0.18655641 -0.5201189 -0.27836275 0.011565298 0.42585742 0.50708133 -0.34116465 0.2418815 -0.018955566 -0.078982465 0.3010992 -0.21986829 0.5845065 0.20133509 0.20205416 0.5315215 0.13609254 0.20710106 0.60681736 0.25769305 0.031020824 0.4783708 -1.0580024 0.5728141 -0.047812123 -0.025425397 0.83202875 -0.2591311 0.5386061 -0.06751898 -0.041272607 0.3870348 0.7307802 0.8651127 -0.10934964 0.11270698 -0.47569048 0.43745345 0.0010670654 0.2110618 -0.5898322 -0.72772354 0.45717496 0.6962567
world 0.37847424 0.18922104 -0.07642858 0.015413446 -0.25370815 0.0253874 -0.3453333 0.8349054 -0.48813158 0.27132106 -0.20452952 -0.45671982 0.347143 0.73734653 0.53177553 0.27249393 -0.8363659 -0.3102726 -0.06681856 0.14354017 -0.044779874 -0.038566057 0.07577192 0.84999955 0.08690864 0.1230239 0.42280924 0.23364323 0.42318282 0.1546983 0.61603975 0.45318308 0.5800536 -0.21350217 -0.46044862 -0.0633054 -1.0645126 0.4330029 -0.54265505 0.3017328 -0.19575429 -0.5985815 -0.289903 0.4341864 -0.40002382 0.05057999 -0.24747251 0.25870404 0.20604669 0.022628315 -0.513688 -0.3506185 -0.416329 -0.1379201 -0.0029037825 0.4873692 0.1768091 -0.4902339 -0.27028182 0.020012394 0.38767877 0.47712627 -0.34532318 0.22722729 -0.0147423595 -0.08409226 0.25558257 -0.21262372 0.5346247 0.19074066 0.15717545 0.49840578 0.13433246 0.20658453 0.55290794 0.24207607 0.020215487 0.45083848 -0.9653658 0.5172311 -0.05514104 -0.017331505 0.76508987 -0.2340284 0.47370207 -0.0752462 -0.036974482 0.36026055 0.662054 0.81038535 -0.09459437 0.098318286 -0.43018275 0.41830406 0.01472642 0.1973462 -0.54494673 -0.6885767 0.41993028 0.65080476
bomb 0.3260671 0.15902993 -0.044640604 -0.0037679144 -0.16445583 0.04442714 -0.2598185 0.73675334 -0.41232762 0.24558106 -0.1667015 -0.42219967 0.31568745 0.6855805 0.4837844 0.23786062 -0.8015737 -0.27145877 -0.070369445 0.15304431 -0.013515699 -0.006190696 0.040698398 0.7252026 0.084801555 0.1048712 0.38275036 0.19239049 0.3882982 0.16218455 0.5380219 0.40187877 0.53580415 -0.21449676 -0.41942763 -0.074852586 -0.9846626 0.36450177 -0.4916014 0.24348988 -0.15256515 -0.51267827 -0.27671665 0.40450072 -0.3019503 0.061747245 -0.22994526 0.24769945 0.18912724 0.024413068 -0.46227297 -0.3239 -0.390979 -0.06324866 0.011877219 0.4857086 0.13295814 -0.42789665 -0.21541059 0.060722373 0.32811698 0.4452509 -0.32875797 0.21102503 -0.041216195 -0.0868644 0.23434295 -0.15865879 0.4663532 0.16096747 0.1116624 0.43136454 0.13840443 0.1712476 0.51393217 0.20088738 -0.01108707 0.45190755 -0.8471911 0.44950002 -0.015479383 -0.028326722 0.7162408 -0.19895968 0.4092312 -0.07504517 -0.04679403 0.30997252 0.6282132 0.7360925 -0.0750093 0.07096056 -0.36002842 0.38675717 0.0308376 0.17728743 -0.5218502 -0.6121405 0.34750888 0.6030005
full 0.43934026 0.23307623 -0.087991156 0.02435234 -0.28199047 0.01685904 -0.39349425 0.9453917 -0.56199175 0.29715604 -0.23782302 -0.51894623 0.393472 0.85744584 0.6126654 0.3260171 -0.9543019 -0.35506752 -0.05908469 0.16789398 -0.037706565 -0.050410654 0.08428417 0.96947664 0.110665314 0.12821968 0.48761111 0.2692984 0.47791016 0.16956675 0.6933687 0.5172095 0.66449547 -0.23043483 -0.53943557 -0.0646449 -1.1903453 0.5020944 -0.6177758 0.33965856 -0.20731458 -0.6732609 -0.32226673 0.48858988 -0.45798334 0.06320818 -0.2670809 0.3079075 0.22081515 0.029565861 -0.58642566 -0.41286135 -0.48607147 -0.14973441 -0.0066510634 0.5368664 0.20976871 -0.56754553 -0.2986968 0.03178683 0.448419 0.5225366 -0.3975049 0.26217782 -0.015975516 -0.084020555 0.2872062 -0.22806889 0.6131643 0.21542759 0.18071075 0.5786788 0.14959104 0.22542872 0.6446475 0.2930049 0.014888012 0.51617056 -1.08857 0.58086413 -0.06445664 -0.023988467 0.8765468 -0.26284787 0.53463745 -0.08362849 -0.036116257 0.3973349 0.76404893 0.92181665 -0.10769771 0.1171978 -0.51116556 0.47947618 0.018829888 0.22366385 -0.60436827 -0.7782634 0.48929152 0.75448334
nuclear 0.3956773 0.19577281 -0.06784615 0.016164672 -0.25407183 0.03480236 -0.35845554 0.85403466 -0.51761943 0.28077632 -0.21350351 -0.48168117 0.3604929 0.77847594 0.55369246 0.27426493 -0.86576813 -0.3336923 -0.066503525 0.15790081 -0.051063463 -0.02917205 0.08054285 0.8801261 0.09012355 0.1170712 0.448147 0.2400713 0.44275078 0.16318457 0.6326948 0.47164407 0.6151272 -0.23042905 -0.4959943 -0.073376164 -1.1119425 0.4667027 -0.57922274 0.29606777 -0.20576528 -0.6283045 -0.2957258 0.46992812 -0.4151641 0.04749259 -0.2510197 0.27421036 0.20706223 0.03264793 -0.5507445 -0.36011323 -0.4452135 -0.1297234 0.005627985 0.5164362 0.1800107 -0.52856094 -0.2775424 0.031640876 0.4074943 0.50467896 -0.37261552 0.24643435 -0.02060212 -0.091797166 0.2728823 -0.22022562 0.56794566 0.1955388 0.1651131 0.537276 0.13147117 0.2204424 0.58658314 0.24552487 0.013865038 0.4726834 -1.0135024 0.5340028 -0.06049022 -0.019647524 0.7958169 -0.24334314 0.5040359 -0.09047319 -0.049683616 0.38603562 0.6999518 0.8555437 -0.087475866 0.10121235 -0.44247162 0.42977637 -0.0060330033 0.21652633 -0.5771259 -0.7056446 0.4362883 0.6828858
go 0.35716107 0.17478223 -0.06951238 0.012733382 -0.2301632 0.024262005 -0.32448056 0.7741674 -0.4595424 0.24566078 -0.18493089 -0.42529076 0.3260902 0.68954337 0.4999042 0.25084382 -0.7761629 -0.28825018 -0.060527228 0.14173988 -0.038113356 -0.043419432 0.06353263 0.79622453 0.08163702 0.11617475 0.40140006 0.23121047 0.39174923 0.15143457 0.57719415 0.42458707 0.5443399 -0.19488509 -0.43349975 -0.052458446 -0.9800036 0.41438583 -0.50450003 0.28108972 -0.1762066 -0.55900955 -0.26892468 0.41230467 -0.3725822 0.045861147 -0.22691649 0.24688956 0.18290955 0.024727704 -0.48846063 -0.33599302 -0.39492178 -0.12950234 -0.005305723 0.45682874 0.16502151 -0.45883167 -0.2529932 0.025258422 0.3651616 0.43386632 -0.32027867 0.22327828 -0.013028125 -0.075180806 0.23971868 -0.19015424 0.5062175 0.18135223 0.14409241 0.46518904 0.12093015 0.19307046 0.5213333 0.22871886 0.018974725 0.40941635 -0.8999098 0.48509708 -0.04997599 -0.019271806 0.71698254 -0.21785614 0.4464056 -0.06327067 -0.034205917 0.33293635 0.61735773 0.75770974 -0.094570026 0.09555729 -0.40089282 0.38498518 0.004216282 0.18667594 -0.51201737 -0.6398275 0.400112 0.6161988
hiroshima 0.34017292 0.16652218 -0.055636063 0.019274611 -0.19808038 0.019774398 -0.29544297 0.7312461 -0.4177171 0.24317184 -0.18951294 -0.40482688 0.33517772 0.66438466 0.4962299 0.22765127 -0.7603368 -0.2693726 -0.054029107 0.13829747 -0.022358596 -0.02461597 0.062154014 0.7708602 0.06758848 0.09613704 0.37871948 0.21884963 0.38338727 0.14455244 0.5651349 0.39788654 0.54732704 -0.21042417 -0.42249346 -0.06737944 -0.9633798 0.40578827 -0.490297 0.2477127 -0.17212743 -0.5443426 -0.26433092 0.41231844 -0.3595462 0.036509182 -0.21282159 0.25511536 0.20129956 0.02350325 -0.46173838 -0.3214266 -0.3845761 -0.11196014 0.016732946 0.45248103 0.16148354 -0.43298233 -0.23849095 0.034028728 0.34542796 0.44121236 -0.31788385 0.21108124 -0.0299219 -0.08098136 0.21616001 -0.1953572 0.49024495 0.1731057 0.11711045 0.45607436 0.12829743 0.19038513 0.50419235 0.20683561 0.013507916 0.42190257 -0.8665963 0.4536136 -0.037577804 -0.022555618 0.7009053 -0.203138 0.44031566 -0.06523604 -0.029760739 0.32040396 0.6017806 0.7430534 -0.0667635 0.092224106 -0.36531425 0.38140348 0.0031499239 0.18521325 -0.5059997 -0.6280055 0.38356996 0.595597
youtube 0.31581944 0.20385967 -0.043956034 0.017622564 -0.2013343 -4.346582e-05 -0.31827334 0.7036949 -0.45414624 0.19903764 -0.17638536 -0.36908644 0.30594388 0.65316355 0.46983752 0.25945038 -0.7197286 -0.28009763 -0.032741334 0.1020671 -0.036063835 -0.061041377 0.042868868 0.7584077 0.03664129 0.0849227 0.35902494 0.2043636 0.3780567 0.15637203 0.53014964 0.37417072 0.48276263 -0.18881868 -0.3994356 -0.041782502 -0.9211226 0.37102282 -0.46252003 0.25971267 -0.15498018 -0.5200856 -0.269794 0.3822324 -0.37165907 0.029068636 -0.21286683 0.23625356 0.19005862 0.045296684 -0.42500147 -0.32470813 -0.34332442 -0.11450063 -0.01556164 0.37089792 0.17214143 -0.43108794 -0.20996477 0.02834057 0.36351407 0.41821444 -0.29816216 0.18426067 -0.020243712 -0.0881323 0.2255444 -0.19245256 0.5023224 0.1465898 0.14745763 0.44123837 0.09771734 0.20883459 0.502845 0.21937884 0.02286713 0.40004927 -0.83480465 0.45899913 -0.013712612 0.0092167305 0.68494344 -0.21244945 0.40527076 -0.037833083 -0.04105257 0.31218082 0.57294273 0.6925128 -0.107908435 0.058832638 -0.39716843 0.3727719 0.0028307927 0.1538955 -0.4749052 -0.61852974 0.33486798 0.5522173
watch 0.35513756 0.17745215 -0.06673469 0.024786266 -0.24048035 0.022642078 -0.32793897 0.773956 -0.4623757 0.23993468 -0.19607902 -0.4202165 0.32593092 0.681668 0.4926366 0.25999638 -0.7766973 -0.29885733 -0.067902766 0.12782133 -0.032350183 -0.039440062 0.059747353 0.78643113 0.083373405 0.107648306 0.40670693 0.21747467 0.39617646 0.14608079 0.57033706 0.42492223 0.5519202 -0.19882092 -0.4383283 -0.046743095 -0.98522246 0.41008928 -0.50348157 0.27483284 -0.19043565 -0.55583704 -0.27039263 0.41085503 -0.3727128 0.045184087 -0.22752781 0.24473572 0.19444199 0.026712764 -0.4772934 -0.3352963 -0.40004185 -0.122196764 0.0015328302 0.44312322 0.17318185 -0.4703629 -0.24877773 0.02326327 0.37290716 0.43901145 -0.33121663 0.21498801 -0.001468415 -0.071090415 0.23737885 -0.1873908 0.49855468 0.17279798 0.16192362 0.46634746 0.118490316 0.18588911 0.5246829 0.23658867 0.015002275 0.42668462 -0.89085084 0.4834923 -0.04611686 -0.021094177 0.71597683 -0.21774468 0.45358336 -0.05747841 -0.030397734 0.3366065 0.6194423 0.75463605 -0.092866495 0.096194886 -0.40940037 0.38265976 0.011561578 0.19709362 -0.5124744 -0.6344738 0.39428896 0.6085556
dead 0.3609075 0.18888661 -0.06570738 0.008939798 -0.23828462 0.023096656 -0.31685728 0.7897428 -0.47042683 0.24754328 -0.18936402 -0.43923166 0.3164509 0.7022232 0.49795374 0.26870912 -0.7962083 -0.30638823 -0.05916975 0.15258877 -0.044147518 -0.041161347 0.06832441 0.8150934 0.09052177 0.11704025 0.41209546 0.21967578 0.4062272 0.15805879 0.586959 0.42262393 0.5589677 -0.19833106 -0.4443931 -0.058096137 -1.0118599 0.4158793 -0.52010036 0.27644598 -0.1920494 -0.5623791 -0.27814928 0.41985384 -0.3746373 0.056099337 -0.23906077 0.2508384 0.19487643 0.03155209 -0.4965037 -0.34120685 -0.40689996 -0.13412224 -0.00095613446 0.46142936 0.17694001 -0.46694267 -0.2570682 0.016056284 0.37538064 0.44432947 -0.3345133 0.21654855 -0.015088383 -0.07476311 0.24303365 -0.19234897 0.5113052 0.18458828 0.15284957 0.4800715 0.125324 0.18745509 0.5390015 0.23267856 0.016243087 0.4369815 -0.9146741 0.49902236 -0.043599688 -0.013755117 0.73196524 -0.21322833 0.45997122 -0.059473384 -0.037370052 0.33229226 0.645633 0.76535904 -0.09013458 0.09024441 -0.4023916 0.3971535 0.016968042 0.1870896 -0.52468586 -0.6542041 0.40039372 0.6302787
today 0.34052622 0.16736421 -0.06627848 0.005827504 -0.22298457 0.023472479 -0.31113857 0.750772 -0.4476667 0.23547268 -0.18279006 -0.413097 0.31493637 0.6708346 0.482071 0.25203016 -0.7581179 -0.2795447 -0.059269533 0.13042192 -0.0388392 -0.03560234 0.058485296 0.7687402 0.0830376 0.10523264 0.38915485 0.21746068 0.3825086 0.14169197 0.5615648 0.4050501 0.53505474 -0.19649623 -0.4241055 -0.053993095 -0.9577292 0.3978203 -0.49790177 0.2737558 -0.17700002 -0.5420924 -0.25776657 0.39871016 -0.3638738 0.04705339 -0.22323297 0.23954667 0.18007077 0.026486484 -0.4693527 -0.32194167 -0.38021675 -0.11910292 0.005714176 0.4411461 0.16161095 -0.448615 -0.23643015 0.023616254 0.35674867 0.43256184 -0.3112259 0.2054561 -0.011505371 -0.070417 0.22801043 -0.1844564 0.48438728 0.17358455 0.13578984 0.4567602 0.12014337 0.19157009 0.5088364 0.21918969 0.012577829 0.4049516 -0.8739591 0.47185713 -0.043569803 -0.012434609 0.70406574 -0.20636989 0.42844433 -0.07050178 -0.036759652 0.3201849 0.60528827 0.73595667 -0.08651077 0.09769902 -0.39561877 0.38227835 0.0077591604 0.1823082 -0.48888087 -0.6228086 0.3875093 0.5886785
car 0.367744 0.18849157 -0.06923584 0.011134393 -0.24830364 0.017296184 -0.33582702 0.7997165 -0.4724302 0.25806043 -0.19310136 -0.44062153 0.33702785 0.7230154 0.51316875 0.27085435 -0.8079781 -0.31008476 -0.0589288 0.13929817 -0.04661031 -0.04435771 0.0722021 0.8247166 0.08316374 0.11470662 0.42023152 0.23396924 0.41204765 0.14747865 0.5978028 0.43825907 0.56037766 -0.20096153 -0.4499216 -0.053615358 -1.0214896 0.4209035 -0.52427524 0.28798857 -0.18451002 -0.5695755 -0.2693581 0.42683417 -0.39232138 0.048915226 -0.23693243 0.25534174 0.19298135 0.02083124 -0.49443653 -0.33965144 -0.4019106 -0.1291877 -0.006823697 0.46933332 0.17598264 -0.47034743 -0.25974542 0.02580602 0.3853057 0.44780314 -0.33665237 0.22192831 -0.004574899 -0.07856353 0.2553288 -0.19793652 0.5237203 0.1769547 0.15462714 0.49070406 0.11773918 0.1957713 0.5510999 0.2365084 0.015450786 0.42389712 -0.92592144 0.50078076 -0.05077655 -0.018307477 0.74368274 -0.22227779 0.45848 -0.07432234 -0.038828764 0.34614208 0.64051735 0.77686405 -0.095259644 0.09246713 -0.42370573 0.40853846 0.0054639596 0.1880013 -0.5233115 -0.6638206 0.41165277 0.6254611
think 0.3169574 0.16076325 -0.05471624 0.0060485946 -0.21077488 0.022994973 -0.28628445 0.69392407 -0.41231418 0.22006638 -0.1695874 -0.38410133 0.2829835 0.6195545 0.44582078 0.22642508 -0.69372416 -0.26213744 -0.053620853 0.12198714 -0.03790919 -0.03960079 0.053751 0.70701116 0.07130147 0.098667055 0.35286507 0.20499794 0.34891868 0.13291225 0.5156722 0.37973252 0.49369958 -0.1729301 -0.3911947 -0.046076242 -0.8838881 0.36481622 -0.44788027 0.2510544 -0.15800107 -0.493126 -0.23925132 0.3672905 -0.32957888 0.044578634 -0.20799796 0.21887521 0.16459113 0.027072534 -0.4269301 -0.29260716 -0.35696703 -0.11312181 0.001619025 0.40765792 0.15253556 -0.4131838 -0.22394314 0.016456792 0.32266825 0.39470902 -0.28956148 0.19424997 -0.010601604 -0.06486813 0.21487194 -0.17765138 0.44477698 0.15489112 0.1353144 0.41947386 0.10685956 0.16762401 0.4665529 0.20501465 0.01785855 0.37565342 -0.79632705 0.43741363 -0.040411 -0.015952572 0.64662576 -0.19190565 0.39687836 -0.06315745 -0.031802 0.29737768 0.5511718 0.6713832 -0.079695426 0.08701219 -0.35817745 0.3501778 0.009006349 0.16612299 -0.447272 -0.57135934 0.35042983 0.5493401
train 0.41041204 0.19962624 -0.0814673 0.01665276 -0.2743107 0.01679368 -0.3659673 0.9030804 -0.5362784 0.2946243 -0.21284604 -0.49609503 0.36866534 0.80799747 0.57442963 0.29982755 -0.8957401 -0.3399029 -0.06854485 0.16617462 -0.04510462 -0.040256508 0.079424724 0.91898996 0.09630077 0.12257403 0.45261198 0.2525093 0.45489597 0.17387992 0.65337765 0.47860017 0.6237995 -0.23540485 -0.4983378 -0.05490119 -1.139291 0.47614452 -0.5843775 0.3259575 -0.21007933 -0.6318521 -0.30146202 0.46145582 -0.43718624 0.05782784 -0.2510536 0.2909312 0.22332785 0.02302406 -0.56573784 -0.374016 -0.45141453 -0.15126653 -0.012290331 0.52224743 0.19596682 -0.5259685 -0.29712555 0.017102597 0.42478618 0.4940752 -0.37602517 0.24007265 -0.009687628 -0.08256528 0.27826604 -0.21899402 0.5873424 0.1994365 0.1703816 0.5500193 0.13627547 0.21361049 0.60937864 0.24941826 0.025817273 0.46721008 -1.0316113 0.5616343 -0.050222296 -0.018621035 0.8209507 -0.24952346 0.51586163 -0.07325994 -0.04202882 0.3926913 0.7158312 0.8630042 -0.10867654 0.11053103 -0.47079924 0.44603717 0.012561208 0.21860301 -0.5944429 -0.7451235 0.45254368 0.71571076
last 0.33840048 0.17096981 -0.0616979 0.015381791 -0.21732473 0.015718687 -0.3053663 0.74349153 -0.43888715 0.22931881 -0.183488 -0.4031337 0.3073486 0.6624948 0.4738252 0.23987453 -0.74412555 -0.28221297 -0.058485676 0.12606142 -0.036084086 -0.03960595 0.056579188 0.75283885 0.08396297 0.104675904 0.37579352 0.2110823 0.37958726 0.1394995 0.5536968 0.40532824 0.5164683 -0.18582697 -0.41740382 -0.048141047 -0.9499334 0.39314657 -0.4872741 0.27092242 -0.17661533 -0.52878493 -0.24861282 0.39214516 -0.36396572 0.05725031 -0.21039595 0.22763662 0.17877482 0.028875817 -0.46611506 -0.32102993 -0.37052128 -0.11967533 0.0025815603 0.4345814 0.16210443 -0.44250688 -0.23943366 0.02124216 0.3514373 0.41764456 -0.31090257 0.2081945 -0.00990487 -0.07435662 0.23387708 -0.18926504 0.4860168 0.1637767 0.14202234 0.45773324 0.11939923 0.18442604 0.49695337 0.2155001 0.009859783 0.40064338 -0.85646766 0.46468472 -0.05049066 -0.014575359 0.6904859 -0.2111178 0.42487332 -0.06130488 -0.040541742 0.32775915 0.6004319 0.7193599 -0.09165531 0.086870484 -0.3882023 0.36876518 0.003787672 0.17810598 -0.48653045 -0.61108994 0.3793171 0.5834153
killed 0.37567592 0.19735001 -0.063366815 0.012006888 -0.2543468 0.029358149 -0.33903533 0.8395868 -0.50396305 0.26386213 -0.21800518 -0.4670835 0.35142738 0.7616687 0.5453841 0.2841952 -0.8742475 -0.32403228 -0.07277524 0.16726562 -0.04064087 -0.03382972 0.075003035 0.8790617 0.089083284 0.13217773 0.44678903 0.23018445 0.43106475 0.16902259 0.63137996 0.46380582 0.6005424 -0.22008932 -0.47267866 -0.06541396 -1.0951847 0.44150567 -0.5582062 0.29493627 -0.20542708 -0.59414715 -0.2987807 0.45456317 -0.40700668 0.06509787 -0.2555415 0.26106367 0.20706566 0.024352906 -0.53027576 -0.36818802 -0.43142757 -0.13835776 0.002412316 0.4975449 0.17596646 -0.49151477 -0.2658485 0.020376487 0.40215534 0.48673895 -0.3624519 0.23167478 -0.021708636 -0.0872925 0.271259 -0.21480551 0.5434572 0.18846476 0.15912007 0.5058565 0.13824964 0.20453446 0.5864237 0.24301586 0.0077685905 0.47857755 -0.97542465 0.53395224 -0.042657666 -0.02573324 0.78756636 -0.2319416 0.485158 -0.06901047 -0.048940234 0.3754818 0.6975824 0.827743 -0.10418712 0.09502206 -0.43720928 0.4322672 0.016942758 0.20539872 -0.5575757 -0.6963627 0.42114356 0.6765535
life 0.34391356 0.17354985 -0.06437652 0.01006595 -0.22397594 0.02114103 -0.3127486 0.7414069 -0.4445244 0.23197128 -0.18064955 -0.41478354 0.31310198 0.66910946 0.4771663 0.24092232 -0.75150216 -0.28018323 -0.0642456 0.13191386 -0.042601366 -0.03488889 0.06604317 0.7616518 0.08034721 0.108153835 0.38040218 0.2169153 0.37739682 0.14300157 0.5524669 0.4029276 0.52578986 -0.18511966 -0.42198363 -0.048196256 -0.95077574 0.3985237 -0.48629722 0.268304 -0.16885377 -0.53381085 -0.25830743 0.3955171 -0.3668477 0.05338369 -0.21906897 0.23587066 0.17564158 0.024604335 -0.4653615 -0.3245209 -0.3833019 -0.12512547 0.0031549304 0.43856564 0.16225292 -0.44096392 -0.24107292 0.016217455 0.35789955 0.41765645 -0.30847004 0.20231535 -0.0077032465 -0.075168945 0.23169442 -0.19178313 0.48776126 0.17200609 0.1469884 0.45329398 0.115518235 0.18101141 0.5087308 0.21173438 0.01731401 0.39963028 -0.86005557 0.46423963 -0.048155177 -0.013803015 0.69223213 -0.20761606 0.43106174 -0.069055505 -0.03437362 0.31656352 0.5998656 0.7224339 -0.09154125 0.08861518 -0.38838273 0.36891046 0.0076231663 0.1805422 -0.49315307 -0.6191302 0.38625923 0.5848516
accident 0.33098704 0.15725614 -0.06943791 0.0077256514 -0.22299063 0.009938116 -0.30359113 0.7156208 -0.43602756 0.2237014 -0.17540254 -0.39282608 0.3012072 0.64836776 0.44916788 0.24537945 -0.71868294 -0.265613 -0.054944355 0.12200031 -0.032419775 -0.034175877 0.051380858 0.73577255 0.08125933 0.11058448 0.3772071 0.20284782 0.37342545 0.13063416 0.53879195 0.39408875 0.5027904 -0.18017258 -0.40133753 -0.051472582 -0.9101774 0.37584996 -0.4706069 0.256641 -0.16546448 -0.51319826 -0.24326132 0.37166193 -0.34591457 0.040245514 -0.20631735 0.21657117 0.16540857 0.020378482 -0.45281243 -0.30875254 -0.36266306 -0.1260878 -0.008185373 0.40732163 0.15082356 -0.42230728 -0.23198117 0.023564203 0.33711606 0.40461507 -0.29735756 0.19846545 -0.007508912 -0.07330315 0.2236026 -0.18042022 0.4631672 0.16760291 0.13647543 0.43569222 0.11488558 0.18257718 0.489435 0.2080744 0.009867075 0.38355067 -0.83456945 0.45279333 -0.051027756 -0.014851847 0.6711946 -0.19837213 0.41154873 -0.057808653 -0.0354922 0.31794876 0.58011127 0.6997856 -0.088326454 0.086558014 -0.36952618 0.36006716 0.005180978 0.16237618 -0.4775064 -0.58851343 0.36579242 0.5695643
good 0.3290458 0.16591538 -0.063707724 0.010209264 -0.21692154 0.016226979 -0.30496252 0.7364113 -0.4326153 0.22952692 -0.17457153 -0.40527385 0.30216745 0.65914387 0.46338722 0.24626793 -0.7411082 -0.27521238 -0.058312073 0.12926564 -0.036031112 -0.034686502 0.05964928 0.7566147 0.07520464 0.11044834 0.37648043 0.21035823 0.3770205 0.13390097 0.54283077 0.39661828 0.5161807 -0.18276292 -0.41768396 -0.05020852 -0.931609 0.39045307 -0.48406252 0.26488605 -0.17323343 -0.52315956 -0.25337085 0.39144003 -0.35063475 0.052491296 -0.21944001 0.23004383 0.17474225 0.02652642 -0.45687538 -0.31972256 -0.37561393 -0.11993894 -0.005390886 0.4301721 0.15801612 -0.43708712 -0.23382676 0.024675522 0.3498214 0.41218984 -0.3033441 0.20623364 -0.015408951 -0.06701346 0.23159917 -0.1810764 0.47867778 0.16799575 0.13427015 0.44756687 0.11329715 0.17824389 0.49260926 0.21692544 0.009326979 0.39008507 -0.842493 0.46201673 -0.047739636 -0.017082756 0.68437266 -0.20522588 0.4200382 -0.06249651 -0.029686341 0.30983597 0.5892907 0.7178021 -0.08270504 0.09334694 -0.3792928 0.3666163 0.009475296 0.17723083 -0.48555726 -0.610039 0.37595245 0.57695866
make 0.40691027 0.20096153 -0.07708785 0.010162156 -0.27757573 0.019621188 -0.3767335 0.89480764 -0.5312521 0.28581116 -0.2167871 -0.4848811 0.37711734 0.79885185 0.5696477 0.2927164 -0.8909524 -0.3348889 -0.06715197 0.14999942 -0.041261677 -0.052575637 0.07875986 0.9204965 0.10056871 0.12210372 0.46427128 0.2612801 0.4546308 0.17037413 0.6642685 0.48764136 0.63081455 -0.22761089 -0.49733055 -0.054856423 -1.1435151 0.47039258 -0.5839639 0.32769796 -0.20934452 -0.64623225 -0.31488162 0.4682513 -0.43611315 0.0646448 -0.2558606 0.29173028 0.20639628 0.033252597 -0.5522176 -0.38076556 -0.44744912 -0.14959583 0.0052982746 0.5183926 0.19368048 -0.52752805 -0.28165632 0.018448208 0.4262399 0.5121544 -0.3682709 0.24518938 -0.0175174 -0.09032412 0.28198254 -0.21913417 0.5859231 0.20848864 0.17296776 0.53505063 0.13180198 0.22526345 0.60370344 0.26190588 0.011007658 0.48393628 -1.0343812 0.5654543 -0.059348557 -0.02659506 0.83592814 -0.25027904 0.52014786 -0.08421635 -0.031820413 0.3863194 0.7209563 0.8661272 -0.09779749 0.11321489 -0.46959367 0.44782233 0.0028613906 0.21225762 -0.5891423 -0.74038875 0.4509064 0.706983
war 0.363616 0.18126535 -0.05878351 0.008321637 -0.23806 0.016251951 -0.32924858 0.7887575 -0.47093025 0.25073656 -0.19705047 -0.4420465 0.34174028 0.71009624 0.5161571 0.25292128 -0.7999302 -0.30477676 -0.06262722 0.13749383 -0.041119285 -0.04607288 0.0723186 0.81634146 0.07951108 0.109532714 0.41890708 0.2278538 0.40413907 0.15593773 0.59659415 0.42645305 0.5596837 -0.20766945 -0.45194253 -0.054046724 -1.0107201 0.41982773 -0.52051187 0.2884797 -0.18601596 -0.5679401 -0.27857575 0.43065533 -0.3915646 0.048673477 -0.2305172 0.2518226 0.19876133 0.033479434 -0.487699 -0.33872005 -0.41221005 -0.13089313 -0.00082750106 0.4624108 0.17302297 -0.47878423 -0.2556597 0.02309047 0.38188758 0.45188588 -0.33187723 0.21747304 -0.021300808 -0.074413925 0.24782091 -0.20129436 0.5142071 0.18950021 0.15587915 0.48214307 0.12619609 0.19027038 0.5320483 0.22707698 0.019194756 0.42421228 -0.91927415 0.5002048 -0.05200911 -0.024726491 0.73203516 -0.2280158 0.46511993 -0.065081924 -0.03783245 0.35366264 0.64423835 0.78601533 -0.09311407 0.08845538 -0.413301 0.39978766 8.2905965e-05 0.18336849 -0.520019 -0.66705674 0.4135146 0.63631624
say 0.32362306 0.16379447 -0.06286626 0.008842226 -0.21606357 0.015923508 -0.30465427 0.7291802 -0.4338883 0.2328774 -0.18090771 -0.40466696 0.3027803 0.6597089 0.46298236 0.23729034 -0.7318099 -0.27685556 -0.05541128 0.13289604 -0.03202135 -0.03925316 0.063492015 0.74042666 0.07541928 0.10919563 0.3701324 0.20813346 0.37003744 0.13097753 0.54617 0.39962766 0.5063637 -0.18649355 -0.40658736 -0.048086207 -0.92637736 0.37956247 -0.47314706 0.26082763 -0.16597024 -0.5194744 -0.25173104 0.38316962 -0.34842238 0.047807056 -0.21377823 0.22178331 0.18130566 0.026921695 -0.456629 -0.31405157 -0.37146467 -0.11869316 0.0011897328 0.42308408 0.15773307 -0.42968398 -0.23631378 0.021361155 0.34200817 0.40830305 -0.29623777 0.19913942 -0.017053995 -0.06757483 0.22447316 -0.18693024 0.47059458 0.16427223 0.13821164 0.44622016 0.11497661 0.17335817 0.49045333 0.21269998 0.014589675 0.39131144 -0.8373707 0.45371273 -0.049369283 -0.018881707 0.6762544 -0.20375338 0.4222578 -0.06793469 -0.032543324 0.31606638 0.5854665 0.7079543 -0.08933808 0.08631645 -0.38184595 0.36723542 0.011187486 0.1783582 -0.47095984 -0.59740984 0.36838952 0.5672371
u 0.2910414 0.152169 -0.051138368 0.0081067495 -0.19967785 0.022245074 -0.2766434 0.65063465 -0.38694832 0.20514978 -0.15331498 -0.3563781 0.26883167 0.5718052 0.41323158 0.2178865 -0.6480628 -0.2500647 -0.05451005 0.11529872 -0.039857306 -0.037175197 0.05978048 0.66403013 0.066275045 0.09561893 0.33339962 0.18946663 0.32675225 0.12391338 0.47448727 0.35318246 0.45209533 -0.16943054 -0.35817924 -0.04469284 -0.8192482 0.34436637 -0.41813102 0.23561262 -0.15193203 -0.46866074 -0.22267184 0.34180868 -0.31170142 0.040359527 -0.18660858 0.20490208 0.15949647 0.018437978 -0.3977808 -0.27809602 -0.3316514 -0.10360622 -0.0044929045 0.37873277 0.13602786 -0.38454336 -0.20998733 0.012771783 0.30122808 0.36657736 -0.2717977 0.17967886 -0.013020641 -0.058701765 0.2012166 -0.16686708 0.41473454 0.14502402 0.12491553 0.38847038 0.10308011 0.15824999 0.4363775 0.1859947 0.009771696 0.35048476 -0.75216395 0.39989305 -0.041546926 -0.019027343 0.60533303 -0.18662614 0.37347767 -0.050310984 -0.02886656 0.27405992 0.5193142 0.6250629 -0.07328887 0.07952197 -0.3332638 0.32980812 0.009993391 0.15732273 -0.42298272 -0.53400576 0.33435708 0.5110915
years 0.2894895 0.14898884 -0.0501871 0.013434636 -0.18735684 0.013238542 -0.2679075 0.62989646 -0.373089 0.20747288 -0.15429845 -0.3518777 0.27759475 0.5691336 0.41092134 0.2053501 -0.6545217 -0.24008757 -0.0578966 0.11286785 -0.032450512 -0.030552205 0.054583788 0.65186226 0.06593647 0.08226877 0.33408296 0.18335815 0.32582447 0.12693448 0.47980738 0.34277216 0.46484292 -0.17555426 -0.36687165 -0.04651769 -0.82410467 0.34749117 -0.41745692 0.23192915 -0.1474796 -0.46144456 -0.21915334 0.34415963 -0.31512153 0.03719328 -0.1914146 0.20691796 0.16576685 0.029420534 -0.3945708 -0.26916263 -0.32736328 -0.10140315 0.009610342 0.37997684 0.13285881 -0.3830719 -0.20871712 0.016037006 0.2995002 0.3746047 -0.27347896 0.17809364 -0.017011538 -0.067187496 0.18962155 -0.16611314 0.418087 0.15417597 0.10480059 0.39223754 0.10714359 0.16687617 0.43474826 0.17665945 0.010343607 0.3496413 -0.74801856 0.3967518 -0.0325216 -0.02331501 0.6005565 -0.17051215 0.3788235 -0.058575984 -0.029655682 0.28084686 0.5119484 0.63412887 -0.06675752 0.08369409 -0.32319084 0.32805938 -0.0006381166 0.1558156 -0.42414176 -0.5325352 0.33339894 0.50614506
many 0.35285106 0.17785536 -0.065025255 0.018392825 -0.23523016 0.013477176 -0.32384205 0.7790944 -0.4642157 0.24831459 -0.19040644 -0.43001047 0.3170354 0.69191575 0.4837898 0.26509932 -0.7688324 -0.28592607 -0.05781892 0.14616188 -0.033812676 -0.0335538 0.060811237 0.7936488 0.08404756 0.109731 0.38901344 0.21625553 0.39640158 0.13685828 0.56987613 0.42834115 0.54288006 -0.20444185 -0.42969075 -0.05693623 -0.9903694 0.4022844 -0.510929 0.27006435 -0.1825077 -0.5486705 -0.26831168 0.40575412 -0.37198955 0.059302308 -0.22027297 0.24594529 0.18609692 0.026913418 -0.48351902 -0.3307931 -0.3954069 -0.14183584 0.0032821745 0.45644686 0.16610642 -0.4526879 -0.24851684 0.0103884265 0.36789754 0.4381625 -0.3324812 0.20407099 -0.0053551816 -0.069694996 0.24526873 -0.18941674 0.50911623 0.18025233 0.15262344 0.47330037 0.11547139 0.18427223 0.52549326 0.23768957 0.01611554 0.41527948 -0.89786625 0.4920168 -0.0444993 -0.014374056 0.7191877 -0.21859786 0.44152004 -0.062345777 -0.03953198 0.32991022 0.6239629 0.755571 -0.08889487 0.092441685 -0.39886293 0.39204478 -0.0048295115 0.18683214 -0.5066455 -0.63667816 0.39445263 0.6136095
need 0.28070992 0.14454739 -0.05798731 0.006049642 -0.18197702 0.0129077155 -0.25801587 0.62174183 -0.36229074 0.1992081 -0.14825214 -0.336983 0.25260997 0.55376095 0.39328143 0.20404743 -0.61564237 -0.23169068 -0.043856803 0.1145926 -0.028332803 -0.033550948 0.047727704 0.63871634 0.06782988 0.08758377 0.32288656 0.18083401 0.3154059 0.11804002 0.4572534 0.34152707 0.44095492 -0.15647817 -0.34817806 -0.044675265 -0.78717667 0.32867503 -0.40917063 0.22197595 -0.14643164 -0.43999863 -0.21570739 0.32749858 -0.2953092 0.04551349 -0.1816576 0.20036757 0.14965641 0.021400264 -0.38055167 -0.26938987 -0.3101498 -0.0991623 0.0007052876 0.36163348 0.13405575 -0.3663643 -0.1995424 0.011412567 0.29653808 0.35314122 -0.2616062 0.16801365 -0.009204933 -0.057330307 0.18804386 -0.15858059 0.39737368 0.13738792 0.11898426 0.37505224 0.0917151 0.15174665 0.41379735 0.17567864 0.007381919 0.3292663 -0.7181361 0.383995 -0.043463364 -0.016144004 0.5732743 -0.17164977 0.35069534 -0.0523631 -0.027470231 0.26828587 0.4920034 0.6014645 -0.0689945 0.07399083 -0.32667327 0.31192192 0.008700621 0.14933623 -0.407281 -0.5173582 0.32121995 0.49145842
families 0.26035678 0.11938059 -0.12171995 -0.018217897 -0.18325269 -0.026380222 -0.24281518 0.6540991 -0.4082352 0.24899589 -0.13199826 -0.34985602 0.2864323 0.61594164 0.4050949 0.22381073 -0.62810135 -0.23044226 -0.026792368 0.09402151 0.012463254 0.0024379038 0.032223713 0.6289153 0.114762716 0.1115788 0.32718793 0.204644 0.30915564 0.101739615 0.47343102 0.3952957 0.44286004 -0.14003721 -0.36733055 -0.10291836 -0.8011669 0.33558977 -0.4033869 0.18545747 -0.1694379 -0.4972898 -0.25349247 0.28735673 -0.33011508 0.05573139 -0.17459477 0.16166794 0.17226541 0.073980525 -0.4218925 -0.27353397 -0.3369054 -0.08683395 0.0288292 0.3271887 0.10729891 -0.31757617 -0.20389566 0.03575233 0.27042067 0.3158 -0.23323666 0.18963912 -0.057630427 -0.029172024 0.22999077 -0.16688222 0.37209854 0.07473515 0.15270464 0.38782844 0.13970613 0.15185346 0.40949357 0.18865333 0.046605162 0.37046388 -0.7650824 0.3685233 -0.060351707 -0.015113163 0.59288156 -0.18772028 0.40748867 -0.05364996 -0.023820976 0.24596132 0.49862254 0.5794483 -0.04858755 0.05429345 -0.33045438 0.23674428 0.010928891 0.1527996 -0.37492442 -0.5414683 0.32701212 0.4556427
want 0.28868362 0.15019196 -0.054140776 0.010675912 -0.19233292 0.02032799 -0.2656244 0.63368464 -0.37869275 0.19469158 -0.14855665 -0.34797564 0.25889894 0.56355155 0.3987214 0.202754 -0.6250972 -0.23518214 -0.05382988 0.107853405 -0.03693107 -0.036193248 0.05859714 0.6457045 0.06967488 0.090813726 0.32488137 0.18559937 0.3144042 0.11501125 0.46392894 0.3411719 0.43983003 -0.15706025 -0.35504574 -0.045586344 -0.80233854 0.33535308 -0.4150894 0.2306629 -0.14754349 -0.45642674 -0.21048513 0.32799786 -0.30679494 0.037362587 -0.1793932 0.20090789 0.15113983 0.025859097 -0.39210662 -0.2751303 -0.3207069 -0.103601456 -0.0022553778 0.3671912 0.13570212 -0.37000823 -0.19495517 0.015538567 0.2947052 0.35009104 -0.25906828 0.1713076 -0.011593046 -0.05852498 0.19686835 -0.1584881 0.40965298 0.14759034 0.120258145 0.38089654 0.09553185 0.15595512 0.42777812 0.18572322 0.008693682 0.33913982 -0.7318133 0.38984358 -0.037404176 -0.009792869 0.5871451 -0.17662184 0.35667455 -0.057823256 -0.032572124 0.2683608 0.5016577 0.6072806 -0.07104853 0.075373344 -0.3265952 0.31100488 0.007947736 0.1457676 -0.41256586 -0.5192345 0.32262805 0.49607617
even 0.30424294 0.15484563 -0.055985566 0.008730116 -0.20641486 0.020343661 -0.28394282 0.6766439 -0.40430176 0.21155134 -0.16902822 -0.37667063 0.277111 0.60290194 0.42712542 0.22584121 -0.68684494 -0.25592157 -0.055990994 0.124581106 -0.03539273 -0.040294684 0.061148994 0.6925627 0.06721047 0.09751862 0.35107473 0.1971329 0.3459667 0.13219257 0.50364137 0.37059003 0.48306525 -0.17360373 -0.381487 -0.051856007 -0.8683168 0.3588472 -0.44242048 0.24414423 -0.16012424 -0.4914795 -0.23745933 0.35663092 -0.33372083 0.04872876 -0.19087036 0.21629985 0.16044123 0.020719718 -0.4237994 -0.29508182 -0.34049737 -0.11354338 -0.003504321 0.3976563 0.15117487 -0.40193924 -0.21713215 0.020629508 0.31822944 0.38814825 -0.285349 0.19000636 -0.011738589 -0.06315339 0.21119286 -0.1751817 0.4373044 0.15290147 0.13287915 0.4092746 0.10615006 0.16345888 0.4599221 0.1929911 0.010932024 0.36737043 -0.7837248 0.42713803 -0.039379902 -0.020820804 0.63013613 -0.18819316 0.38809288 -0.055518236 -0.028233657 0.29763824 0.5495165 0.65999657 -0.07971905 0.07915426 -0.36063436 0.34022313 0.0024568278 0.1588841 -0.4403151 -0.5651529 0.34562585 0.53297204
way 0.29079494 0.14530544 -0.05979937 0.0039306274 -0.20056605 0.021076132 -0.26826584 0.64725477 -0.38813597 0.20449154 -0.15298575 -0.3528075 0.27187607 0.5812133 0.41366765 0.21434337 -0.6502297 -0.24774979 -0.052325528 0.11336979 -0.029350773 -0.035343364 0.05845075 0.6632057 0.072254784 0.08989481 0.33329165 0.19368899 0.32950005 0.12583579 0.48662502 0.35420138 0.4571365 -0.16117802 -0.36183178 -0.05032098 -0.8307051 0.34466887 -0.42219615 0.24011415 -0.15237409 -0.46257892 -0.22738765 0.34376445 -0.3174976 0.037264086 -0.1841585 0.20414285 0.15228733 0.025382478 -0.40612692 -0.28049788 -0.32894036 -0.103659354 0.0022160485 0.3718215 0.13433492 -0.38864306 -0.20553885 0.021136144 0.3096765 0.36799335 -0.27137345 0.18137503 -0.007989232 -0.057220634 0.20344064 -0.16500123 0.42628282 0.1495558 0.12790352 0.38677117 0.09392831 0.1583157 0.43363446 0.1885111 0.016979145 0.34497127 -0.75410724 0.4100461 -0.043235414 -0.0142999785 0.6083505 -0.1853886 0.3696744 -0.056894783 -0.027556268 0.27615166 0.5148296 0.62649703 -0.07482933 0.07837932 -0.33952618 0.3271124 0.013167546 0.1549471 -0.4243147 -0.5323299 0.33163616 0.511436
right 0.28880018 0.15042573 -0.05646948 0.013743093 -0.18866523 0.021491926 -0.26975772 0.6396018 -0.37596995 0.1969601 -0.15842497 -0.3485291 0.26546264 0.57149416 0.40783712 0.20505086 -0.6333283 -0.24388014 -0.045454927 0.11522408 -0.038298756 -0.036487434 0.049390484 0.6544235 0.07125355 0.09527115 0.32755643 0.18247458 0.32235685 0.11867278 0.47180596 0.34706774 0.45016325 -0.16016525 -0.3579908 -0.038209043 -0.8100336 0.332576 -0.41873726 0.23170231 -0.14375766 -0.45638672 -0.21262828 0.3332593 -0.31056258 0.042175546 -0.18056029 0.20334622 0.1480029 0.02341496 -0.3960609 -0.2683667 -0.32325405 -0.10967435 0.000880602 0.3681678 0.13763425 -0.37567556 -0.20833072 0.011918145 0.30092916 0.36494926 -0.26286995 0.18205719 -0.014020219 -0.055368695 0.19579434 -0.16241467 0.41685042 0.14824565 0.123671904 0.38213784 0.10041124 0.1613191 0.43277514 0.18601999 0.0072299056 0.3452709 -0.7305634 0.3960336 -0.04505281 -0.009759542 0.5939543 -0.17429793 0.36421314 -0.05576351 -0.032702323 0.27878642 0.50514966 0.6143607 -0.07592691 0.08116206 -0.3322136 0.32177058 0.012422056 0.1524421 -0.41794264 -0.52373546 0.322065 0.5066248
collapse 0.38154125 0.18414462 -0.06478822 0.005867236 -0.25883606 0.020620922 -0.34458962 0.82759506 -0.50153667 0.26508108 -0.20970856 -0.46088713 0.3407805 0.74785596 0.5210825 0.2778506 -0.83667994 -0.31914476 -0.06381349 0.14809084 -0.034711644 -0.045605116 0.066144764 0.8561525 0.07821582 0.112559 0.42232174 0.24000828 0.4294627 0.15617597 0.6140893 0.44233635 0.58968663 -0.20373067 -0.46682924 -0.061773267 -1.0645964 0.42461643 -0.5488232 0.2899332 -0.18514152 -0.5916947 -0.29014152 0.4382898 -0.3927702 0.057702687 -0.23732667 0.2695124 0.20333064 0.02200113 -0.5249526 -0.34375086 -0.41974422 -0.13289443 0.0013878912 0.48255953 0.17877525 -0.49853092 -0.26865667 0.031569473 0.38343504 0.47760049 -0.3432244 0.23990269 -0.021162892 -0.089506924 0.26285118 -0.2086181 0.5376329 0.1882459 0.16174974 0.51192605 0.12240427 0.2119752 0.55538934 0.24719582 0.013601921 0.45518473 -0.9609267 0.50640875 -0.05383342 -0.02075618 0.76554716 -0.23134318 0.47370404 -0.073491275 -0.032927413 0.35116452 0.66022265 0.8069928 -0.10728858 0.10404758 -0.43708804 0.41797963 0.01876089 0.19656993 -0.5558473 -0.6920294 0.4186818 0.6538769
bombing 0.2922255 0.14699438 -0.051964123 0.011207636 -0.15939882 0.03356891 -0.24350843 0.63642263 -0.3665998 0.21174678 -0.15112604 -0.35769394 0.28156373 0.60528594 0.42876565 0.21689351 -0.698833 -0.2341258 -0.046041258 0.12765698 -0.017776487 -0.012117456 0.051372923 0.6514175 0.076792926 0.09135533 0.33546096 0.17813595 0.33191282 0.13674584 0.49455282 0.34973013 0.47510087 -0.18305841 -0.3681327 -0.06538875 -0.87021023 0.33947182 -0.43215683 0.22446619 -0.15042333 -0.46301553 -0.24692127 0.3605168 -0.2918776 0.06019208 -0.21023785 0.22334772 0.16975214 0.022877716 -0.41427898 -0.293516 -0.3460744 -0.0758049 0.008922154 0.41154101 0.1227375 -0.38007668 -0.19054356 0.046239514 0.30572096 0.3806206 -0.28643686 0.18568677 -0.0291656 -0.07528272 0.20161478 -0.16038688 0.42206737 0.13788319 0.0932066 0.38101253 0.11491234 0.16817182 0.44648242 0.16955699 -0.00013535337 0.3966933 -0.76237714 0.3920365 -0.008555708 -0.0304974 0.63491106 -0.16602331 0.37645245 -0.069452316 -0.03393283 0.2717059 0.5452877 0.6445615 -0.06287789 0.06982822 -0.31980324 0.34077862 0.014748945 0.15811409 -0.4429092 -0.5383002 0.33103693 0.5210395
best 0.29932007 0.14290302 -0.056568142 0.01612221 -0.19803268 0.010794936 -0.2795938 0.6600242 -0.3951033 0.20460306 -0.16056018 -0.36060858 0.26982352 0.5951684 0.42469847 0.22411142 -0.66066027 -0.25223795 -0.055111878 0.12148194 -0.030054674 -0.03175398 0.0518092 0.67748994 0.069528244 0.09991581 0.34914583 0.19715403 0.34108013 0.11786586 0.49971 0.36056817 0.46944448 -0.1578081 -0.37197545 -0.05254679 -0.8440916 0.348662 -0.43402022 0.23223466 -0.15953855 -0.4740556 -0.22826976 0.34863338 -0.31581423 0.042875223 -0.18967803 0.2060023 0.16076595 0.009781722 -0.4056089 -0.27714008 -0.3327474 -0.11107481 -0.0015970906 0.38991308 0.14152886 -0.39444703 -0.20867836 0.017184615 0.31665462 0.3777595 -0.27315694 0.19153571 -0.0012287449 -0.05840982 0.20438394 -0.16266592 0.43321827 0.15240668 0.13078238 0.39540482 0.09471014 0.15695067 0.44329095 0.1961434 0.0088462215 0.347327 -0.7609872 0.41598994 -0.045803424 -0.016304731 0.6148734 -0.18284355 0.37571636 -0.068687975 -0.03731825 0.2865787 0.52092445 0.646254 -0.08302395 0.086728245 -0.3535677 0.3354857 -7.513403e-05 0.15915996 -0.4348746 -0.54896224 0.3395954 0.5211328
forest 0.334265 0.16322258 -0.07206737 0.011282077 -0.20583592 0.012999462 -0.3042668 0.72965145 -0.42459667 0.22660294 -0.17767231 -0.40501374 0.28673795 0.66588634 0.45824134 0.2392299 -0.7346034 -0.27479038 -0.062015384 0.13639821 -0.031537257 -0.042084567 0.06414524 0.7498187 0.068981774 0.11905451 0.37798262 0.21758871 0.36609727 0.14497148 0.5535227 0.41170284 0.5161396 -0.18328051 -0.4115365 -0.038052496 -0.9255249 0.3672822 -0.46790737 0.2582737 -0.17978512 -0.5312432 -0.24090962 0.3818614 -0.35045168 0.03774888 -0.19279894 0.24171226 0.17980471 0.030215293 -0.45678717 -0.31628156 -0.36571655 -0.10915925 -0.0071364515 0.42675588 0.14812285 -0.43435222 -0.23274936 0.0038663812 0.34586665 0.4127775 -0.30026865 0.21289477 -0.017695867 -0.060100783 0.21694182 -0.1827566 0.48831 0.17457265 0.14144288 0.4608297 0.099860646 0.17844915 0.49235156 0.21502635 2.1982027e-05 0.384559 -0.8338354 0.44899666 -0.042331703 -0.018485844 0.68518245 -0.2166094 0.3976053 -0.07461576 -0.042062078 0.32388803 0.59147763 0.71966976 -0.07315603 0.0927731 -0.3978821 0.3581109 0.009807771 0.18603043 -0.46810222 -0.60930586 0.38063195 0.5890268
army 0.33071917 0.18296711 -0.05510488 -0.009026057 -0.20252353 0.037022784 -0.29728305 0.75978273 -0.4346238 0.251271 -0.17703567 -0.425735 0.31852558 0.6861686 0.49358875 0.24516605 -0.80083525 -0.30155948 -0.06939888 0.15174738 -0.009278921 -0.025792379 0.05051686 0.7591045 0.08158418 0.10799765 0.39250997 0.21395132 0.40227574 0.15211862 0.5707774 0.42168388 0.54090184 -0.21343842 -0.43305218 -0.058723386 -0.9926518 0.3804411 -0.5020767 0.25951946 -0.15731017 -0.5393317 -0.27366984 0.4058372 -0.33779833 0.058283288 -0.23185198 0.25640655 0.19230273 0.028783752 -0.47417715 -0.33235353 -0.39077893 -0.09201197 0.0016214999 0.4707496 0.14713487 -0.4401624 -0.22456542 0.0370835 0.3474725 0.45385677 -0.3284806 0.22544375 -0.03304798 -0.09318533 0.23152697 -0.17361514 0.48172742 0.16178891 0.1458735 0.4461857 0.12988865 0.18340038 0.521173 0.22286685 0.0022086184 0.42859927 -0.86854845 0.47447595 -0.046131305 -0.016652862 0.72065663 -0.21842007 0.42735335 -0.07039228 -0.0524436 0.33276248 0.6323785 0.74394494 -0.07969431 0.07894335 -0.39119264 0.38392094 0.0072350134 0.18828121 -0.5217399 -0.6277281 0.37401223 0.619603
mass 0.2743715 0.14709072 -0.04445704 0.007885865 -0.17722845 0.015757231 -0.2541281 0.6178395 -0.3598463 0.2074112 -0.15604563 -0.35562167 0.2619831 0.5548496 0.4092843 0.20523076 -0.61963063 -0.2310748 -0.052073173 0.109760486 -0.034003355 -0.029909452 0.040133435 0.63502663 0.056130435 0.081691965 0.32922083 0.18939647 0.3130213 0.12106979 0.46019512 0.33886746 0.4444097 -0.15632875 -0.3533082 -0.036384147 -0.8027176 0.34138304 -0.41736925 0.22322868 -0.13569124 -0.44603196 -0.21401495 0.32749885 -0.29332012 0.048040573 -0.1830266 0.1967266 0.16055086 0.031319857 -0.38848075 -0.2789174 -0.31877646 -0.09813658 -0.00452642 0.37224862 0.13282184 -0.36787787 -0.20901889 0.016631978 0.3040661 0.3581477 -0.26069137 0.17260337 -0.011322715 -0.049555253 0.20084238 -0.15812746 0.4158328 0.1382708 0.11945152 0.3729194 0.10116088 0.1508303 0.40719944 0.17529885 0.013252995 0.3343329 -0.7130171 0.3975222 -0.040891506 -0.0056091547 0.5730246 -0.16905792 0.36697286 -0.045260243 -0.02958534 0.2785208 0.50636387 0.603701 -0.06441633 0.082104005 -0.3200763 0.31123462 0.0036739947 0.14066055 -0.3985513 -0.5068606 0.32982165 0.48249266
year 0.28397727 0.14980501 -0.0478388 0.0067897392 -0.18426843 0.016935129 -0.26106206 0.6259567 -0.3811001 0.19925638 -0.1603956 -0.34957275 0.26876965 0.5614753 0.40846106 0.20371713 -0.64442086 -0.23276532 -0.053811155 0.107007064 -0.034884673 -0.03374765 0.052120917 0.645911 0.06386053 0.087003015 0.31921932 0.18307294 0.3264573 0.11965506 0.468752 0.34484667 0.44009003 -0.1666 -0.3606264 -0.04129705 -0.812318 0.334879 -0.4112844 0.2312631 -0.14509548 -0.44774416 -0.212297 0.33554578 -0.30677763 0.045483742 -0.17766409 0.19418083 0.1541604 0.029278591 -0.39176947 -0.27250704 -0.32058746 -0.10090556 -0.0013075816 0.3647673 0.13346687 -0.37548319 -0.19838554 0.019560693 0.30145115 0.35622552 -0.26726013 0.17290051 -0.013757374 -0.06654508 0.19239044 -0.15336627 0.41622913 0.14341722 0.11590488 0.37897232 0.09374205 0.15727685 0.42174932 0.18505432 0.009271373 0.34456828 -0.7287203 0.39916658 -0.035289425 -0.013636154 0.58615357 -0.18199605 0.3621817 -0.057591043 -0.027060872 0.27060303 0.5128198 0.61081856 -0.07791543 0.076070756 -0.3340634 0.31582418 0.010157707 0.15369697 -0.41564354 -0.52099234 0.31913552 0.49912125
work 0.30094194 0.15992387 -0.06169447 0.013553908 -0.2057526 0.016200107 -0.28544134 0.6785615 -0.39292404 0.21460071 -0.15735365 -0.37040135 0.2808249 0.60024065 0.4219597 0.2181249 -0.6740261 -0.2583482 -0.056487724 0.11687853 -0.027625335 -0.037713844 0.05816246 0.68838227 0.06844585 0.09897231 0.34239525 0.19740361 0.34097475 0.12594967 0.49475217 0.36952695 0.46841067 -0.16319238 -0.37010163 -0.039510608 -0.85483205 0.35023248 -0.43231794 0.24802381 -0.15128025 -0.47690466 -0.22079974 0.3540081 -0.327405 0.048411075 -0.19835585 0.20714721 0.16181736 0.022228347 -0.42281604 -0.28797466 -0.3408401 -0.11582257 -0.004585392 0.38701722 0.14012888 -0.3964433 -0.21596536 0.021541208 0.31632894 0.3778757 -0.27575725 0.19162498 -0.005803247 -0.062414438 0.20414205 -0.16296668 0.43244544 0.14803328 0.13324532 0.40442517 0.10637763 0.1680408 0.45111433 0.19192311 0.009996598 0.35723296 -0.7713555 0.42357206 -0.04942101 -0.014959374 0.6243122 -0.19442987 0.39059502 -0.05694206 -0.028538574 0.2893535 0.5331276 0.6592958 -0.07572887 0.07849639 -0.34682915 0.33320028 0.0065292264 0.1626007 -0.43404198 -0.5562695 0.34282833 0.52833635
take 0.32794487 0.16565225 -0.06462523 0.0033755978 -0.22264554 0.021907303 -0.30169225 0.716875 -0.4161073 0.22383738 -0.16748618 -0.39047867 0.28881606 0.638013 0.45263338 0.239121 -0.70658755 -0.26374733 -0.056538954 0.121064395 -0.032830335 -0.039800007 0.0653569 0.72836226 0.081427366 0.102512516 0.36284298 0.21126358 0.3663659 0.12627774 0.51963276 0.38310724 0.49697542 -0.18754785 -0.404176 -0.045933776 -0.90592206 0.38165373 -0.45658776 0.2496988 -0.15988691 -0.508153 -0.24413566 0.3719802 -0.3396082 0.042565133 -0.20709592 0.22944413 0.17213216 0.02065515 -0.43890682 -0.3071435 -0.35494888 -0.1136433 0.0012286516 0.41100237 0.15011108 -0.41677427 -0.22799267 0.016322987 0.34141302 0.40276825 -0.29086757 0.20431569 -0.0069644423 -0.07511463 0.22198814 -0.18006745 0.45483243 0.16281636 0.13216548 0.42842442 0.10814236 0.17851608 0.48539653 0.20916408 0.018521668 0.37622306 -0.8191068 0.44710642 -0.047296576 -0.021139659 0.6623158 -0.1955107 0.4134663 -0.06265574 -0.027997166 0.30569473 0.5688459 0.6963643 -0.08689173 0.08952591 -0.37137702 0.35717484 0.0044228965 0.17448199 -0.46756715 -0.5838848 0.35953003 0.56240433
home 0.306172 0.15338136 -0.060828034 0.009008054 -0.19905704 0.018085372 -0.28153393 0.67400235 -0.39644238 0.2108161 -0.1658673 -0.36470106 0.2761191 0.59695184 0.42298472 0.22519073 -0.6755143 -0.24911866 -0.05174279 0.122387454 -0.02710746 -0.038946517 0.060994823 0.6814043 0.07616598 0.09987758 0.34199148 0.19205002 0.3392789 0.121820524 0.49228206 0.35766524 0.4678227 -0.17157595 -0.37172204 -0.048176505 -0.85941786 0.35704166 -0.43467465 0.24245468 -0.15271431 -0.47827727 -0.22523479 0.34813538 -0.32329154 0.037384827 -0.19122697 0.20698199 0.16586423 0.024896083 -0.41735923 -0.28899124 -0.33409896 -0.1134536 -0.0038141718 0.39345467 0.1405568 -0.40159586 -0.21884704 0.01793958 0.31939065 0.38384098 -0.27500516 0.18417531 -0.013634868 -0.065132596 0.21011768 -0.17245722 0.43680504 0.15323432 0.1314572 0.4031866 0.10050073 0.1643901 0.44789454 0.20020425 0.013535223 0.35558465 -0.7709073 0.41379827 -0.04035921 -0.012003422 0.62492526 -0.19243523 0.38936502 -0.053420827 -0.037139304 0.28657803 0.531306 0.65165156 -0.08517765 0.075540766 -0.34884924 0.32834545 0.00034140892 0.16608469 -0.43330392 -0.54959214 0.33811894 0.53280413
really 0.27625892 0.14136261 -0.05401784 0.009863985 -0.18576488 0.018753491 -0.24660195 0.5975091 -0.35499254 0.18759377 -0.14508621 -0.33378235 0.24984527 0.5381393 0.3780221 0.20307207 -0.595661 -0.2250773 -0.041770607 0.106932744 -0.02885002 -0.032153506 0.049074035 0.6179377 0.061689876 0.08312042 0.31070957 0.17747004 0.3011882 0.110793896 0.4381197 0.3251173 0.42581558 -0.1483694 -0.33578396 -0.035420604 -0.75931 0.31533182 -0.3933571 0.21680245 -0.13575295 -0.43368685 -0.20732427 0.31603542 -0.28515074 0.03636673 -0.17708774 0.19474842 0.14446348 0.022288851 -0.37529477 -0.25792518 -0.30892357 -0.10197359 0.0025978482 0.3455475 0.12673786 -0.35578018 -0.1952368 0.015976006 0.28648946 0.34086156 -0.24335283 0.1655909 -0.010684906 -0.05250279 0.18149318 -0.14593975 0.3836718 0.13347605 0.11315883 0.36334872 0.09551382 0.14811622 0.40825593 0.17945123 0.012518191 0.32187042 -0.6931776 0.37231788 -0.042533085 -0.016048254 0.55970657 -0.16660884 0.34927964 -0.0509983 -0.030635446 0.25313997 0.47806683 0.57470715 -0.07155595 0.06776314 -0.31847885 0.29775658 0.0065694503 0.14069225 -0.38871482 -0.49100125 0.30354017 0.4767834
w 0.3558148 0.18059006 -0.069194056 0.0141829895 -0.24110752 0.023008516 -0.33190584 0.7911911 -0.465856 0.25716177 -0.1948039 -0.431577 0.3311213 0.71078974 0.49779645 0.2575051 -0.7992943 -0.30235958 -0.06573771 0.14602782 -0.03629502 -0.044589836 0.0617454 0.81366366 0.08298944 0.11358874 0.40995476 0.23296246 0.4047853 0.14603369 0.58168703 0.43152133 0.56105775 -0.19981866 -0.43774536 -0.052167695 -1.0056858 0.41969186 -0.5169574 0.28099474 -0.17802827 -0.56223977 -0.2692976 0.4216721 -0.38157985 0.05038834 -0.22716585 0.24928567 0.19240338 0.030375654 -0.49180204 -0.33984908 -0.4016676 -0.12474077 -0.0029303348 0.46108094 0.17045496 -0.46838123 -0.2568475 0.01719585 0.37615332 0.44246247 -0.327654 0.21901645 -0.010141918 -0.07725633 0.24488828 -0.20057124 0.5109113 0.18207261 0.14958316 0.4836079 0.11743559 0.20014626 0.5391111 0.22974476 0.0081161605 0.42747512 -0.9112064 0.4917804 -0.055826016 -0.015258521 0.7416802 -0.22287454 0.45191613 -0.06941371 -0.029091991 0.33810157 0.63324815 0.76536095 -0.09432838 0.09053701 -0.41359228 0.40136924 0.008751072 0.1891688 -0.522121 -0.65394694 0.40031874 0.6288713
death 0.29837078 0.1514456 -0.05270611 0.008626532 -0.19185892 0.015524605 -0.27134642 0.64639354 -0.38460413 0.20926659 -0.16084373 -0.3524005 0.26707813 0.57479113 0.4179805 0.21558513 -0.6462752 -0.24853607 -0.054261927 0.11343117 -0.032727566 -0.037002735 0.056662932 0.66380614 0.06900666 0.09344522 0.3283221 0.18934175 0.333004 0.11823924 0.47761384 0.3513563 0.45309246 -0.16154051 -0.36684453 -0.050547626 -0.8226982 0.34461623 -0.42050338 0.228254 -0.15172175 -0.46163127 -0.22043025 0.33732423 -0.31766325 0.042002052 -0.18726078 0.20739764 0.15580137 0.027601356 -0.4024018 -0.27748543 -0.33062 -0.10747464 -0.0014054286 0.36996004 0.13589063 -0.38342822 -0.2030343 0.016122917 0.31034416 0.36154777 -0.26892912 0.17888978 -0.0075426884 -0.06353613 0.19957927 -0.16453649 0.41869882 0.14659171 0.12928359 0.39532295 0.098962136 0.1593134 0.4321128 0.18762791 0.009636697 0.35154608 -0.74761033 0.39929983 -0.038623612 -0.0108439345 0.60059595 -0.18601878 0.37589195 -0.050858594 -0.030960437 0.28057912 0.51524717 0.6310409 -0.07751385 0.077457964 -0.3432619 0.31778792 0.010701162 0.14901814 -0.4237568 -0.5403189 0.32662135 0.50543654
wildfire 0.2967129 0.13878074 -0.057023864 0.02829888 -0.20461737 0.0031769336 -0.25059646 0.64002144 -0.3695514 0.20744021 -0.17965668 -0.34425518 0.2442834 0.5690571 0.37928617 0.20331503 -0.6563487 -0.2332091 -0.06934001 0.11865722 -0.033981875 -0.034973275 0.0667062 0.63513047 0.053495202 0.09068433 0.31805807 0.1770249 0.3245257 0.11231437 0.45752817 0.32956007 0.4435419 -0.1475696 -0.36167392 -0.038153525 -0.81520855 0.2999992 -0.3984744 0.24138442 -0.15922464 -0.44763875 -0.21884784 0.3410904 -0.29980716 0.028821504 -0.15527669 0.18424049 0.15122758 0.016808124 -0.4209031 -0.25880215 -0.31598964 -0.09984213 3.3618414e-06 0.3896411 0.12695023 -0.36080348 -0.2091301 0.01691345 0.2965499 0.35852665 -0.25166962 0.18083553 -0.019450368 -0.057863977 0.18215498 -0.16762319 0.41842484 0.1669268 0.104085416 0.3794868 0.0843316 0.17513983 0.42841092 0.17047668 0.007946198 0.35103792 -0.7189601 0.37513867 -0.05278759 -0.025135089 0.60293514 -0.18071626 0.3560929 -0.0741963 -0.028509855 0.28130862 0.51732093 0.59917045 -0.10090928 0.07366475 -0.34160313 0.3065952 0.0058593373 0.15837741 -0.42480308 -0.5181583 0.32801622 0.5071597
black 0.33601505 0.1586836 -0.06953751 0.011775926 -0.22142804 0.007909394 -0.3129428 0.7425129 -0.43127167 0.23774812 -0.18141301 -0.40726277 0.30507532 0.66241777 0.48004982 0.255422 -0.7398646 -0.27805498 -0.055517785 0.13605884 -0.033132866 -0.042639073 0.04886196 0.75792295 0.07317443 0.11460188 0.38819325 0.21808988 0.38336715 0.13236052 0.5532415 0.4029168 0.52486414 -0.17734945 -0.41578272 -0.059863083 -0.9423966 0.38106287 -0.48152065 0.2676357 -0.16760848 -0.5378844 -0.24394737 0.39238012 -0.35427055 0.04870549 -0.21260184 0.23191135 0.18489407 0.010274923 -0.4608099 -0.31511378 -0.37057003 -0.12008675 0.007012545 0.43309772 0.15333301 -0.43667328 -0.23366448 0.026842205 0.3428634 0.42430657 -0.30253792 0.20823832 -0.0013287772 -0.06272058 0.23319706 -0.18366161 0.49327904 0.16966997 0.14685975 0.44218957 0.10408731 0.16656233 0.49434936 0.21179444 0.022311583 0.39371786 -0.84982735 0.46500495 -0.055291075 -0.01513754 0.6840782 -0.19882707 0.42065355 -0.07433777 -0.03483708 0.32325736 0.58482385 0.7212398 -0.082619056 0.1043231 -0.38536748 0.37129736 0.008298457 0.18411732 -0.4871772 -0.61000985 0.37556094 0.57656455
another 0.28522322 0.14435825 -0.048090473 0.0071301097 -0.18823835 0.019978238 -0.2657569 0.6371441 -0.37620085 0.20430788 -0.1577051 -0.34438056 0.26499176 0.5764643 0.41164455 0.2083327 -0.638194 -0.23842366 -0.053837758 0.1167256 -0.03523694 -0.037727606 0.055983704 0.65781164 0.068813875 0.09127476 0.33009204 0.18927021 0.32819223 0.124620646 0.4762003 0.34358835 0.44757068 -0.16436283 -0.36182866 -0.04810655 -0.81670487 0.33890948 -0.41352257 0.22472963 -0.1453692 -0.4551684 -0.22252917 0.33178902 -0.31298143 0.045635078 -0.18386924 0.20669721 0.15952139 0.02285573 -0.3959081 -0.2756976 -0.32828435 -0.100368865 -0.0046563414 0.37041607 0.13968368 -0.37924165 -0.20158383 0.02137343 0.29732436 0.36155334 -0.26744717 0.17864455 -0.012101332 -0.06596853 0.19902661 -0.15573898 0.41666928 0.1482683 0.123022914 0.37964112 0.09898974 0.16027537 0.43329322 0.18669881 0.01877732 0.3457506 -0.74049497 0.39331615 -0.037503675 -0.015211975 0.59147066 -0.18358524 0.369299 -0.051080342 -0.028715562 0.27786744 0.5165762 0.6151439 -0.07817463 0.07319827 -0.3389546 0.31366432 0.006619015 0.15281075 -0.42182 -0.5300055 0.33012748 0.49827194
never 0.2820695 0.14086245 -0.054306857 0.0055932216 -0.19146733 0.019532584 -0.26727843 0.6341064 -0.3737316 0.2027372 -0.15783383 -0.35213876 0.26160914 0.56749135 0.40314952 0.20376079 -0.64108384 -0.23834279 -0.047541738 0.11362217 -0.027775174 -0.030904796 0.054322295 0.6456892 0.067690626 0.09618346 0.32818022 0.18259084 0.32216457 0.115154535 0.4716969 0.34736142 0.44552577 -0.15733974 -0.35407946 -0.048502117 -0.8121806 0.3367724 -0.41771224 0.22463663 -0.14362748 -0.4511179 -0.21241617 0.3322856 -0.30592957 0.044304512 -0.18674445 0.19808713 0.15502189 0.026775546 -0.39505002 -0.2713912 -0.3251352 -0.10751205 -0.0040756846 0.37065065 0.13733725 -0.37920305 -0.20415835 0.019736394 0.30369273 0.3597121 -0.25922182 0.18039961 -0.01598026 -0.06120773 0.19813803 -0.16306604 0.4151235 0.1457189 0.11862135 0.38765845 0.10071875 0.15912756 0.4238148 0.18359688 0.014032833 0.3379239 -0.7283494 0.40045246 -0.04631036 -0.009584123 0.5893669 -0.1757612 0.36760595 -0.05697067 -0.028983068 0.27513877 0.5110051 0.6117471 -0.068568766 0.07166536 -0.326836 0.31443423 0.0019647405 0.14754511 -0.4195866 -0.5253687 0.32265106 0.4960245
water 0.33081636 0.16502899 -0.06665108 0.019237999 -0.21574502 0.010208658 -0.2941151 0.7241343 -0.42805085 0.23023127 -0.17376886 -0.39137208 0.30049628 0.6502877 0.4697312 0.24407282 -0.71827084 -0.27340716 -0.05119464 0.12378464 -0.0308409 -0.033592984 0.058496054 0.74202526 0.065414295 0.11051116 0.37073803 0.20547853 0.36890244 0.137866 0.53174806 0.38826904 0.5009725 -0.18604065 -0.39957395 -0.037777066 -0.92723835 0.37448975 -0.46407273 0.2611437 -0.15874015 -0.50817525 -0.2479204 0.370277 -0.35205108 0.047924228 -0.2108193 0.22953388 0.16971682 0.033639587 -0.45549497 -0.3103787 -0.35987213 -0.116163276 -0.0071379473 0.40207198 0.16518903 -0.41902024 -0.23657583 0.016474916 0.34634146 0.39499506 -0.30227885 0.20344236 -0.010764896 -0.06872018 0.22762364 -0.18991165 0.4728992 0.1617806 0.14614567 0.43612736 0.09781369 0.17678528 0.49031252 0.20507216 0.019821709 0.37723145 -0.82968175 0.4567172 -0.03744886 -0.006230075 0.66312164 -0.19780435 0.41292307 -0.06545841 -0.03483843 0.32020438 0.5775901 0.69820094 -0.09541917 0.085357 -0.37705368 0.36038774 0.0029807887 0.1701253 -0.4693979 -0.6118789 0.35720593 0.57105136
mh 0.28577474 0.1322394 -0.07475 -0.011486876 -0.20447746 -0.011248837 -0.28976783 0.6269367 -0.4019538 0.20818654 -0.15203121 -0.36756328 0.2658169 0.59646624 0.41725704 0.23180628 -0.63720244 -0.24836 -0.066078655 0.097703986 -0.029626073 -0.044394035 0.025966698 0.6630468 0.0919688 0.1016219 0.34072432 0.20841117 0.33338782 0.14756873 0.4757749 0.3585596 0.45354247 -0.17622863 -0.39049143 -0.060350068 -0.8481793 0.32721862 -0.42764544 0.21782753 -0.16225578 -0.48330623 -0.24611577 0.33784333 -0.3141955 0.055371508 -0.17608796 0.1653398 0.15442997 0.022112831 -0.41599968 -0.3005778 -0.32231277 -0.08370732 0.022813262 0.3536872 0.13995388 -0.37191916 -0.19305466 0.0026459186 0.3099575 0.35672936 -0.23750177 0.16659868 -0.011404575 -0.0525327 0.22949083 -0.171 0.41666007 0.1541954 0.15351714 0.37942457 0.093580656 0.15336297 0.42412418 0.1639472 0.017198224 0.34252888 -0.7599976 0.41903207 -0.023270851 -0.026700458 0.59402245 -0.19455075 0.39866096 -0.046130426 -0.029777234 0.2868411 0.5265619 0.61004627 -0.07988457 0.07820606 -0.35150784 0.31456038 -0.01155291 0.1507657 -0.4179296 -0.5257831 0.33656144 0.49384442
help 0.2725562 0.13296308 -0.05584107 0.004515335 -0.18447809 0.017588956 -0.25449696 0.59877557 -0.3612685 0.18898259 -0.14304374 -0.33525848 0.24922943 0.5369148 0.387257 0.19567208 -0.6044752 -0.2296486 -0.049269866 0.11357036 -0.027197165 -0.028939875 0.055498865 0.6181485 0.06166937 0.08851338 0.30763963 0.1745857 0.3080969 0.11842489 0.4435085 0.32304165 0.42330107 -0.1502436 -0.33922455 -0.038217984 -0.76998556 0.31700343 -0.39329296 0.21823515 -0.1442574 -0.43950737 -0.2115538 0.31334588 -0.2909925 0.044072222 -0.17271517 0.18487099 0.14946198 0.020696664 -0.37799844 -0.25459382 -0.31023842 -0.09832705 0.0026284868 0.34926167 0.13047935 -0.35702994 -0.19813092 0.0149652185 0.2800777 0.33780307 -0.25396204 0.17157276 -0.0122883655 -0.057689533 0.18554224 -0.1535955 0.39051914 0.14194536 0.114971004 0.36712155 0.09419331 0.15245785 0.4081442 0.17088243 0.013718317 0.3195781 -0.6960449 0.3716977 -0.037552163 -0.01691768 0.56539077 -0.16922338 0.34388548 -0.05373614 -0.025226517 0.26203233 0.4892111 0.5893927 -0.06949341 0.06846129 -0.31935146 0.29673666 0.010480388 0.14874294 -0.3956268 -0.49477366 0.31099698 0.47919443
